digraph Tree {
node [shape=box, style="filled, rounded", color="black", fontname=helvetica] ;
edge [fontname=helvetica] ;
0 [label="country <= 0.5\ngini = 0.499\nsamples = 453321\nvalue = [237338, 215983]\nclass = T", fillcolor="#e5813917"] ;
1 [label="country <= -0.5\ngini = 0.008\nsamples = 52236\nvalue = [52027, 209]\nclass = T", fillcolor="#e58139fe"] ;
0 -> 1 [labeldistance=2.5, labelangle=45, headlabel="True"] ;
2 [label="browser <= 2.5\ngini = 0.497\nsamples = 454\nvalue = [245, 209]\nclass = T", fillcolor="#e5813925"] ;
1 -> 2 ;
3 [label="device <= 0.5\ngini = 0.5\nsamples = 324\nvalue = [167, 157]\nclass = T", fillcolor="#e581390f"] ;
2 -> 3 ;
4 [label="source <= 0.5\ngini = 0.493\nsamples = 166\nvalue = [93, 73]\nclass = T", fillcolor="#e5813937"] ;
3 -> 4 ;
5 [label="browser <= 0.5\ngini = 0.461\nsamples = 36\nvalue = [23, 13]\nclass = T", fillcolor="#e581396f"] ;
4 -> 5 ;
6 [label="browser_language <= 1.0\ngini = 0.153\nsamples = 12\nvalue = [11, 1]\nclass = T", fillcolor="#e58139e8"] ;
5 -> 6 ;
7 [label="gini = 0.165\nsamples = 11\nvalue = [10, 1]\nclass = T", fillcolor="#e58139e6"] ;
6 -> 7 ;
8 [label="gini = 0.0\nsamples = 1\nvalue = [1, 0]\nclass = T", fillcolor="#e58139ff"] ;
6 -> 8 ;
9 [label="conversion <= 0.5\ngini = 0.5\nsamples = 24\nvalue = [12, 12]\nclass = T", fillcolor="#e5813900"] ;
5 -> 9 ;
10 [label="browser_language <= 0.5\ngini = 0.499\nsamples = 23\nvalue = [11, 12]\nclass = e", fillcolor="#399de515"] ;
9 -> 10 ;
11 [label="gini = 0.492\nsamples = 16\nvalue = [7, 9]\nclass = e", fillcolor="#399de539"] ;
10 -> 11 ;
12 [label="browser_language <= 1.5\ngini = 0.49\nsamples = 7\nvalue = [4, 3]\nclass = T", fillcolor="#e5813940"] ;
10 -> 12 ;
13 [label="gini = 0.0\nsamples = 1\nvalue = [1, 0]\nclass = T", fillcolor="#e58139ff"] ;
12 -> 13 ;
14 [label="gini = 0.5\nsamples = 6\nvalue = [3, 3]\nclass = T", fillcolor="#e5813900"] ;
12 -> 14 ;
15 [label="gini = 0.0\nsamples = 1\nvalue = [1, 0]\nclass = T", fillcolor="#e58139ff"] ;
9 -> 15 ;
16 [label="browser <= 0.5\ngini = 0.497\nsamples = 130\nvalue = [70, 60]\nclass = T", fillcolor="#e5813924"] ;
4 -> 16 ;
17 [label="conversion <= 0.5\ngini = 0.498\nsamples = 47\nvalue = [22, 25]\nclass = e", fillcolor="#399de51f"] ;
16 -> 17 ;
18 [label="browser_language <= 1.5\ngini = 0.5\nsamples = 45\nvalue = [22, 23]\nclass = e", fillcolor="#399de50b"] ;
17 -> 18 ;
19 [label="browser_language <= 0.5\ngini = 0.497\nsamples = 41\nvalue = [19, 22]\nclass = e", fillcolor="#399de523"] ;
18 -> 19 ;
20 [label="source <= 1.5\ngini = 0.499\nsamples = 40\nvalue = [19, 21]\nclass = e", fillcolor="#399de518"] ;
19 -> 20 ;
21 [label="gini = 0.49\nsamples = 21\nvalue = [9, 12]\nclass = e", fillcolor="#399de540"] ;
20 -> 21 ;
22 [label="gini = 0.499\nsamples = 19\nvalue = [10, 9]\nclass = T", fillcolor="#e5813919"] ;
20 -> 22 ;
23 [label="gini = 0.0\nsamples = 1\nvalue = [0, 1]\nclass = e", fillcolor="#399de5ff"] ;
19 -> 23 ;
24 [label="gini = 0.375\nsamples = 4\nvalue = [3, 1]\nclass = T", fillcolor="#e58139aa"] ;
18 -> 24 ;
25 [label="gini = 0.0\nsamples = 2\nvalue = [0, 2]\nclass = e", fillcolor="#399de5ff"] ;
17 -> 25 ;
26 [label="browser_language <= 1.0\ngini = 0.488\nsamples = 83\nvalue = [48, 35]\nclass = T", fillcolor="#e5813945"] ;
16 -> 26 ;
27 [label="source <= 1.5\ngini = 0.493\nsamples = 70\nvalue = [39, 31]\nclass = T", fillcolor="#e5813934"] ;
26 -> 27 ;
28 [label="conversion <= 0.5\ngini = 0.489\nsamples = 33\nvalue = [19, 14]\nclass = T", fillcolor="#e5813943"] ;
27 -> 28 ;
29 [label="gini = 0.48\nsamples = 30\nvalue = [18, 12]\nclass = T", fillcolor="#e5813955"] ;
28 -> 29 ;
30 [label="gini = 0.444\nsamples = 3\nvalue = [1, 2]\nclass = e", fillcolor="#399de57f"] ;
28 -> 30 ;
31 [label="conversion <= 0.5\ngini = 0.497\nsamples = 37\nvalue = [20, 17]\nclass = T", fillcolor="#e5813926"] ;
27 -> 31 ;
32 [label="gini = 0.5\nsamples = 33\nvalue = [17, 16]\nclass = T", fillcolor="#e581390f"] ;
31 -> 32 ;
33 [label="gini = 0.375\nsamples = 4\nvalue = [3, 1]\nclass = T", fillcolor="#e58139aa"] ;
31 -> 33 ;
34 [label="source <= 1.5\ngini = 0.426\nsamples = 13\nvalue = [9, 4]\nclass = T", fillcolor="#e581398e"] ;
26 -> 34 ;
35 [label="gini = 0.48\nsamples = 5\nvalue = [2, 3]\nclass = e", fillcolor="#399de555"] ;
34 -> 35 ;
36 [label="gini = 0.219\nsamples = 8\nvalue = [7, 1]\nclass = T", fillcolor="#e58139db"] ;
34 -> 36 ;
37 [label="browser_language <= 1.5\ngini = 0.498\nsamples = 158\nvalue = [74, 84]\nclass = e", fillcolor="#399de51e"] ;
3 -> 37 ;
38 [label="browser_language <= 0.5\ngini = 0.499\nsamples = 139\nvalue = [67, 72]\nclass = e", fillcolor="#399de512"] ;
37 -> 38 ;
39 [label="source <= 1.5\ngini = 0.499\nsamples = 138\nvalue = [66, 72]\nclass = e", fillcolor="#399de515"] ;
38 -> 39 ;
40 [label="source <= 0.5\ngini = 0.5\nsamples = 85\nvalue = [43, 42]\nclass = T", fillcolor="#e5813906"] ;
39 -> 40 ;
41 [label="conversion <= 0.5\ngini = 0.485\nsamples = 29\nvalue = [12, 17]\nclass = e", fillcolor="#399de54b"] ;
40 -> 41 ;
42 [label="gini = 0.483\nsamples = 27\nvalue = [11, 16]\nclass = e", fillcolor="#399de550"] ;
41 -> 42 ;
43 [label="gini = 0.5\nsamples = 2\nvalue = [1, 1]\nclass = T", fillcolor="#e5813900"] ;
41 -> 43 ;
44 [label="conversion <= 0.5\ngini = 0.494\nsamples = 56\nvalue = [31, 25]\nclass = T", fillcolor="#e5813931"] ;
40 -> 44 ;
45 [label="gini = 0.496\nsamples = 53\nvalue = [29, 24]\nclass = T", fillcolor="#e581392c"] ;
44 -> 45 ;
46 [label="gini = 0.444\nsamples = 3\nvalue = [2, 1]\nclass = T", fillcolor="#e581397f"] ;
44 -> 46 ;
47 [label="conversion <= 0.5\ngini = 0.491\nsamples = 53\nvalue = [23, 30]\nclass = e", fillcolor="#399de53b"] ;
39 -> 47 ;
48 [label="gini = 0.493\nsamples = 50\nvalue = [22, 28]\nclass = e", fillcolor="#399de537"] ;
47 -> 48 ;
49 [label="gini = 0.444\nsamples = 3\nvalue = [1, 2]\nclass = e", fillcolor="#399de57f"] ;
47 -> 49 ;
50 [label="gini = 0.0\nsamples = 1\nvalue = [1, 0]\nclass = T", fillcolor="#e58139ff"] ;
38 -> 50 ;
51 [label="source <= 0.5\ngini = 0.465\nsamples = 19\nvalue = [7, 12]\nclass = e", fillcolor="#399de56a"] ;
37 -> 51 ;
52 [label="gini = 0.32\nsamples = 5\nvalue = [1, 4]\nclass = e", fillcolor="#399de5bf"] ;
51 -> 52 ;
53 [label="source <= 1.5\ngini = 0.49\nsamples = 14\nvalue = [6, 8]\nclass = e", fillcolor="#399de540"] ;
51 -> 53 ;
54 [label="gini = 0.469\nsamples = 8\nvalue = [3, 5]\nclass = e", fillcolor="#399de566"] ;
53 -> 54 ;
55 [label="gini = 0.5\nsamples = 6\nvalue = [3, 3]\nclass = T", fillcolor="#e5813900"] ;
53 -> 55 ;
56 [label="browser_language <= 0.5\ngini = 0.48\nsamples = 130\nvalue = [78, 52]\nclass = T", fillcolor="#e5813955"] ;
2 -> 56 ;
57 [label="source <= 0.5\ngini = 0.468\nsamples = 110\nvalue = [69, 41]\nclass = T", fillcolor="#e5813967"] ;
56 -> 57 ;
58 [label="device <= 0.5\ngini = 0.499\nsamples = 21\nvalue = [10, 11]\nclass = e", fillcolor="#399de517"] ;
57 -> 58 ;
59 [label="browser <= 5.5\ngini = 0.426\nsamples = 13\nvalue = [4, 9]\nclass = e", fillcolor="#399de58e"] ;
58 -> 59 ;
60 [label="browser <= 4.0\ngini = 0.444\nsamples = 12\nvalue = [4, 8]\nclass = e", fillcolor="#399de57f"] ;
59 -> 60 ;
61 [label="gini = 0.444\nsamples = 9\nvalue = [3, 6]\nclass = e", fillcolor="#399de57f"] ;
60 -> 61 ;
62 [label="gini = 0.444\nsamples = 3\nvalue = [1, 2]\nclass = e", fillcolor="#399de57f"] ;
60 -> 62 ;
63 [label="gini = 0.0\nsamples = 1\nvalue = [0, 1]\nclass = e", fillcolor="#399de5ff"] ;
59 -> 63 ;
64 [label="conversion <= 0.5\ngini = 0.375\nsamples = 8\nvalue = [6, 2]\nclass = T", fillcolor="#e58139aa"] ;
58 -> 64 ;
65 [label="gini = 0.408\nsamples = 7\nvalue = [5, 2]\nclass = T", fillcolor="#e5813999"] ;
64 -> 65 ;
66 [label="gini = 0.0\nsamples = 1\nvalue = [1, 0]\nclass = T", fillcolor="#e58139ff"] ;
64 -> 66 ;
67 [label="browser <= 5.5\ngini = 0.447\nsamples = 89\nvalue = [59, 30]\nclass = T", fillcolor="#e581397d"] ;
57 -> 67 ;
68 [label="browser <= 4.5\ngini = 0.436\nsamples = 84\nvalue = [57, 27]\nclass = T", fillcolor="#e5813986"] ;
67 -> 68 ;
69 [label="conversion <= 0.5\ngini = 0.419\nsamples = 57\nvalue = [40, 17]\nclass = T", fillcolor="#e5813993"] ;
68 -> 69 ;
70 [label="source <= 1.5\ngini = 0.426\nsamples = 52\nvalue = [36, 16]\nclass = T", fillcolor="#e581398e"] ;
69 -> 70 ;
71 [label="browser <= 3.5\ngini = 0.422\nsamples = 33\nvalue = [23, 10]\nclass = T", fillcolor="#e5813990"] ;
70 -> 71 ;
72 [label="gini = 0.355\nsamples = 13\nvalue = [10, 3]\nclass = T", fillcolor="#e58139b3"] ;
71 -> 72 ;
73 [label="gini = 0.455\nsamples = 20\nvalue = [13, 7]\nclass = T", fillcolor="#e5813976"] ;
71 -> 73 ;
74 [label="browser <= 3.5\ngini = 0.432\nsamples = 19\nvalue = [13, 6]\nclass = T", fillcolor="#e5813989"] ;
70 -> 74 ;
75 [label="gini = 0.473\nsamples = 13\nvalue = [8, 5]\nclass = T", fillcolor="#e5813960"] ;
74 -> 75 ;
76 [label="gini = 0.278\nsamples = 6\nvalue = [5, 1]\nclass = T", fillcolor="#e58139cc"] ;
74 -> 76 ;
77 [label="source <= 1.5\ngini = 0.32\nsamples = 5\nvalue = [4, 1]\nclass = T", fillcolor="#e58139bf"] ;
69 -> 77 ;
78 [label="gini = 0.375\nsamples = 4\nvalue = [3, 1]\nclass = T", fillcolor="#e58139aa"] ;
77 -> 78 ;
79 [label="gini = 0.0\nsamples = 1\nvalue = [1, 0]\nclass = T", fillcolor="#e58139ff"] ;
77 -> 79 ;
80 [label="source <= 1.5\ngini = 0.466\nsamples = 27\nvalue = [17, 10]\nclass = T", fillcolor="#e5813969"] ;
68 -> 80 ;
81 [label="conversion <= 0.5\ngini = 0.459\nsamples = 14\nvalue = [9, 5]\nclass = T", fillcolor="#e5813971"] ;
80 -> 81 ;
82 [label="gini = 0.463\nsamples = 11\nvalue = [7, 4]\nclass = T", fillcolor="#e581396d"] ;
81 -> 82 ;
83 [label="gini = 0.444\nsamples = 3\nvalue = [2, 1]\nclass = T", fillcolor="#e581397f"] ;
81 -> 83 ;
84 [label="gini = 0.473\nsamples = 13\nvalue = [8, 5]\nclass = T", fillcolor="#e5813960"] ;
80 -> 84 ;
85 [label="source <= 1.5\ngini = 0.48\nsamples = 5\nvalue = [2, 3]\nclass = e", fillcolor="#399de555"] ;
67 -> 85 ;
86 [label="gini = 0.0\nsamples = 1\nvalue = [0, 1]\nclass = e", fillcolor="#399de5ff"] ;
85 -> 86 ;
87 [label="gini = 0.5\nsamples = 4\nvalue = [2, 2]\nclass = T", fillcolor="#e5813900"] ;
85 -> 87 ;
88 [label="conversion <= 0.5\ngini = 0.495\nsamples = 20\nvalue = [9, 11]\nclass = e", fillcolor="#399de52e"] ;
56 -> 88 ;
89 [label="browser_language <= 1.5\ngini = 0.484\nsamples = 17\nvalue = [7, 10]\nclass = e", fillcolor="#399de54d"] ;
88 -> 89 ;
90 [label="source <= 1.5\ngini = 0.375\nsamples = 4\nvalue = [1, 3]\nclass = e", fillcolor="#399de5aa"] ;
89 -> 90 ;
91 [label="gini = 0.5\nsamples = 2\nvalue = [1, 1]\nclass = T", fillcolor="#e5813900"] ;
90 -> 91 ;
92 [label="gini = 0.0\nsamples = 2\nvalue = [0, 2]\nclass = e", fillcolor="#399de5ff"] ;
90 -> 92 ;
93 [label="source <= 1.5\ngini = 0.497\nsamples = 13\nvalue = [6, 7]\nclass = e", fillcolor="#399de524"] ;
89 -> 93 ;
94 [label="source <= 0.5\ngini = 0.444\nsamples = 9\nvalue = [3, 6]\nclass = e", fillcolor="#399de57f"] ;
93 -> 94 ;
95 [label="browser <= 4.0\ngini = 0.5\nsamples = 4\nvalue = [2, 2]\nclass = T", fillcolor="#e5813900"] ;
94 -> 95 ;
96 [label="gini = 0.444\nsamples = 3\nvalue = [1, 2]\nclass = e", fillcolor="#399de57f"] ;
95 -> 96 ;
97 [label="gini = 0.0\nsamples = 1\nvalue = [1, 0]\nclass = T", fillcolor="#e58139ff"] ;
95 -> 97 ;
98 [label="device <= 0.5\ngini = 0.32\nsamples = 5\nvalue = [1, 4]\nclass = e", fillcolor="#399de5bf"] ;
94 -> 98 ;
99 [label="gini = 0.0\nsamples = 1\nvalue = [0, 1]\nclass = e", fillcolor="#399de5ff"] ;
98 -> 99 ;
100 [label="gini = 0.375\nsamples = 4\nvalue = [1, 3]\nclass = e", fillcolor="#399de5aa"] ;
98 -> 100 ;
101 [label="browser <= 3.5\ngini = 0.375\nsamples = 4\nvalue = [3, 1]\nclass = T", fillcolor="#e58139aa"] ;
93 -> 101 ;
102 [label="gini = 0.5\nsamples = 2\nvalue = [1, 1]\nclass = T", fillcolor="#e5813900"] ;
101 -> 102 ;
103 [label="gini = 0.0\nsamples = 2\nvalue = [2, 0]\nclass = T", fillcolor="#e58139ff"] ;
101 -> 103 ;
104 [label="browser <= 3.5\ngini = 0.444\nsamples = 3\nvalue = [2, 1]\nclass = T", fillcolor="#e581397f"] ;
88 -> 104 ;
105 [label="gini = 0.0\nsamples = 1\nvalue = [0, 1]\nclass = e", fillcolor="#399de5ff"] ;
104 -> 105 ;
106 [label="gini = 0.0\nsamples = 2\nvalue = [2, 0]\nclass = T", fillcolor="#e58139ff"] ;
104 -> 106 ;
107 [label="gini = 0.0\nsamples = 51782\nvalue = [51782, 0]\nclass = T", fillcolor="#e58139ff"] ;
1 -> 107 ;
108 [label="country <= 10.5\ngini = 0.497\nsamples = 401085\nvalue = [185311, 215774]\nclass = e", fillcolor="#399de524"] ;
0 -> 108 [labeldistance=2.5, labelangle=-45, headlabel="False"] ;
109 [label="country <= 4.5\ngini = 0.5\nsamples = 303466\nvalue = [150320, 153146]\nclass = e", fillcolor="#399de505"] ;
108 -> 109 ;
110 [label="browser <= 4.5\ngini = 0.5\nsamples = 225722\nvalue = [112996, 112726]\nclass = T", fillcolor="#e5813901"] ;
109 -> 110 ;
111 [label="browser <= 0.5\ngini = 0.5\nsamples = 202115\nvalue = [100993, 101122]\nclass = e", fillcolor="#399de500"] ;
110 -> 111 ;
112 [label="browser_language <= 0.5\ngini = 0.5\nsamples = 30600\nvalue = [15436, 15164]\nclass = T", fillcolor="#e5813904"] ;
111 -> 112 ;
113 [label="conversion <= 0.5\ngini = 0.5\nsamples = 25564\nvalue = [12864, 12700]\nclass = T", fillcolor="#e5813903"] ;
112 -> 113 ;
114 [label="country <= 3.5\ngini = 0.5\nsamples = 24287\nvalue = [12230, 12057]\nclass = T", fillcolor="#e5813904"] ;
113 -> 114 ;
115 [label="country <= 2.5\ngini = 0.5\nsamples = 18389\nvalue = [9276, 9113]\nclass = T", fillcolor="#e5813904"] ;
114 -> 115 ;
116 [label="source <= 1.5\ngini = 0.5\nsamples = 17120\nvalue = [8616, 8504]\nclass = T", fillcolor="#e5813903"] ;
115 -> 116 ;
117 [label="country <= 1.5\ngini = 0.5\nsamples = 10266\nvalue = [5190, 5076]\nclass = T", fillcolor="#e5813906"] ;
116 -> 117 ;
118 [label="source <= 0.5\ngini = 0.5\nsamples = 8177\nvalue = [4113, 4064]\nclass = T", fillcolor="#e5813903"] ;
117 -> 118 ;
119 [label="gini = 0.5\nsamples = 2630\nvalue = [1327, 1303]\nclass = T", fillcolor="#e5813905"] ;
118 -> 119 ;
120 [label="gini = 0.5\nsamples = 5547\nvalue = [2786, 2761]\nclass = T", fillcolor="#e5813902"] ;
118 -> 120 ;
121 [label="source <= 0.5\ngini = 0.5\nsamples = 2089\nvalue = [1077, 1012]\nclass = T", fillcolor="#e581390f"] ;
117 -> 121 ;
122 [label="gini = 0.5\nsamples = 674\nvalue = [345, 329]\nclass = T", fillcolor="#e581390c"] ;
121 -> 122 ;
123 [label="gini = 0.499\nsamples = 1415\nvalue = [732, 683]\nclass = T", fillcolor="#e5813911"] ;
121 -> 123 ;
124 [label="country <= 1.5\ngini = 0.5\nsamples = 6854\nvalue = [3426, 3428]\nclass = e", fillcolor="#399de500"] ;
116 -> 124 ;
125 [label="gini = 0.5\nsamples = 5489\nvalue = [2751, 2738]\nclass = T", fillcolor="#e5813901"] ;
124 -> 125 ;
126 [label="gini = 0.5\nsamples = 1365\nvalue = [675, 690]\nclass = e", fillcolor="#399de506"] ;
124 -> 126 ;
127 [label="source <= 0.5\ngini = 0.499\nsamples = 1269\nvalue = [660, 609]\nclass = T", fillcolor="#e5813914"] ;
115 -> 127 ;
128 [label="gini = 0.5\nsamples = 262\nvalue = [133, 129]\nclass = T", fillcolor="#e5813908"] ;
127 -> 128 ;
129 [label="source <= 1.5\ngini = 0.499\nsamples = 1007\nvalue = [527, 480]\nclass = T", fillcolor="#e5813917"] ;
127 -> 129 ;
130 [label="gini = 0.498\nsamples = 531\nvalue = [282, 249]\nclass = T", fillcolor="#e581391e"] ;
129 -> 130 ;
131 [label="gini = 0.5\nsamples = 476\nvalue = [245, 231]\nclass = T", fillcolor="#e581390f"] ;
129 -> 131 ;
132 [label="source <= 1.5\ngini = 0.5\nsamples = 5898\nvalue = [2954, 2944]\nclass = T", fillcolor="#e5813901"] ;
114 -> 132 ;
133 [label="source <= 0.5\ngini = 0.5\nsamples = 3546\nvalue = [1758, 1788]\nclass = e", fillcolor="#399de504"] ;
132 -> 133 ;
134 [label="gini = 0.5\nsamples = 1173\nvalue = [580, 593]\nclass = e", fillcolor="#399de506"] ;
133 -> 134 ;
135 [label="gini = 0.5\nsamples = 2373\nvalue = [1178, 1195]\nclass = e", fillcolor="#399de504"] ;
133 -> 135 ;
136 [label="gini = 0.5\nsamples = 2352\nvalue = [1196, 1156]\nclass = T", fillcolor="#e5813909"] ;
132 -> 136 ;
137 [label="source <= 1.5\ngini = 0.5\nsamples = 1277\nvalue = [634, 643]\nclass = e", fillcolor="#399de504"] ;
113 -> 137 ;
138 [label="source <= 0.5\ngini = 0.5\nsamples = 776\nvalue = [395, 381]\nclass = T", fillcolor="#e5813909"] ;
137 -> 138 ;
139 [label="country <= 1.5\ngini = 0.499\nsamples = 282\nvalue = [135, 147]\nclass = e", fillcolor="#399de515"] ;
138 -> 139 ;
140 [label="gini = 0.494\nsamples = 160\nvalue = [71, 89]\nclass = e", fillcolor="#399de534"] ;
139 -> 140 ;
141 [label="country <= 3.5\ngini = 0.499\nsamples = 122\nvalue = [64, 58]\nclass = T", fillcolor="#e5813918"] ;
139 -> 141 ;
142 [label="country <= 2.5\ngini = 0.491\nsamples = 60\nvalue = [34, 26]\nclass = T", fillcolor="#e581393c"] ;
141 -> 142 ;
143 [label="gini = 0.497\nsamples = 50\nvalue = [27, 23]\nclass = T", fillcolor="#e5813926"] ;
142 -> 143 ;
144 [label="gini = 0.42\nsamples = 10\nvalue = [7, 3]\nclass = T", fillcolor="#e5813992"] ;
142 -> 144 ;
145 [label="gini = 0.499\nsamples = 62\nvalue = [30, 32]\nclass = e", fillcolor="#399de510"] ;
141 -> 145 ;
146 [label="country <= 2.5\ngini = 0.499\nsamples = 494\nvalue = [260, 234]\nclass = T", fillcolor="#e5813919"] ;
138 -> 146 ;
147 [label="country <= 1.5\ngini = 0.498\nsamples = 338\nvalue = [180, 158]\nclass = T", fillcolor="#e581391f"] ;
146 -> 147 ;
148 [label="gini = 0.499\nsamples = 279\nvalue = [147, 132]\nclass = T", fillcolor="#e581391a"] ;
147 -> 148 ;
149 [label="gini = 0.493\nsamples = 59\nvalue = [33, 26]\nclass = T", fillcolor="#e5813936"] ;
147 -> 149 ;
150 [label="country <= 3.5\ngini = 0.5\nsamples = 156\nvalue = [80, 76]\nclass = T", fillcolor="#e581390d"] ;
146 -> 150 ;
151 [label="gini = 0.495\nsamples = 31\nvalue = [14, 17]\nclass = e", fillcolor="#399de52d"] ;
150 -> 151 ;
152 [label="gini = 0.498\nsamples = 125\nvalue = [66, 59]\nclass = T", fillcolor="#e581391b"] ;
150 -> 152 ;
153 [label="country <= 1.5\ngini = 0.499\nsamples = 501\nvalue = [239, 262]\nclass = e", fillcolor="#399de516"] ;
137 -> 153 ;
154 [label="gini = 0.5\nsamples = 296\nvalue = [149, 147]\nclass = T", fillcolor="#e5813903"] ;
153 -> 154 ;
155 [label="country <= 3.5\ngini = 0.493\nsamples = 205\nvalue = [90, 115]\nclass = e", fillcolor="#399de537"] ;
153 -> 155 ;
156 [label="country <= 2.5\ngini = 0.483\nsamples = 88\nvalue = [36, 52]\nclass = e", fillcolor="#399de54e"] ;
155 -> 156 ;
157 [label="gini = 0.496\nsamples = 57\nvalue = [26, 31]\nclass = e", fillcolor="#399de529"] ;
156 -> 157 ;
158 [label="gini = 0.437\nsamples = 31\nvalue = [10, 21]\nclass = e", fillcolor="#399de586"] ;
156 -> 158 ;
159 [label="gini = 0.497\nsamples = 117\nvalue = [54, 63]\nclass = e", fillcolor="#399de524"] ;
155 -> 159 ;
160 [label="source <= 0.5\ngini = 0.5\nsamples = 5036\nvalue = [2572, 2464]\nclass = T", fillcolor="#e581390b"] ;
112 -> 160 ;
161 [label="conversion <= 0.5\ngini = 0.498\nsamples = 982\nvalue = [521, 461]\nclass = T", fillcolor="#e581391d"] ;
160 -> 161 ;
162 [label="browser_language <= 1.5\ngini = 0.499\nsamples = 930\nvalue = [489, 441]\nclass = T", fillcolor="#e5813919"] ;
161 -> 162 ;
163 [label="country <= 3.5\ngini = 0.5\nsamples = 164\nvalue = [82, 82]\nclass = T", fillcolor="#e5813900"] ;
162 -> 163 ;
164 [label="country <= 1.5\ngini = 0.5\nsamples = 125\nvalue = [64, 61]\nclass = T", fillcolor="#e581390c"] ;
163 -> 164 ;
165 [label="gini = 0.5\nsamples = 90\nvalue = [44, 46]\nclass = e", fillcolor="#399de50b"] ;
164 -> 165 ;
166 [label="country <= 2.5\ngini = 0.49\nsamples = 35\nvalue = [20, 15]\nclass = T", fillcolor="#e5813940"] ;
164 -> 166 ;
167 [label="gini = 0.494\nsamples = 27\nvalue = [15, 12]\nclass = T", fillcolor="#e5813933"] ;
166 -> 167 ;
168 [label="gini = 0.469\nsamples = 8\nvalue = [5, 3]\nclass = T", fillcolor="#e5813966"] ;
166 -> 168 ;
169 [label="gini = 0.497\nsamples = 39\nvalue = [18, 21]\nclass = e", fillcolor="#399de524"] ;
163 -> 169 ;
170 [label="country <= 1.5\ngini = 0.498\nsamples = 766\nvalue = [407, 359]\nclass = T", fillcolor="#e581391e"] ;
162 -> 170 ;
171 [label="gini = 0.497\nsamples = 432\nvalue = [234, 198]\nclass = T", fillcolor="#e5813927"] ;
170 -> 171 ;
172 [label="country <= 3.5\ngini = 0.499\nsamples = 334\nvalue = [173, 161]\nclass = T", fillcolor="#e5813912"] ;
170 -> 172 ;
173 [label="country <= 2.5\ngini = 0.498\nsamples = 136\nvalue = [64, 72]\nclass = e", fillcolor="#399de51c"] ;
172 -> 173 ;
174 [label="gini = 0.498\nsamples = 100\nvalue = [47, 53]\nclass = e", fillcolor="#399de51d"] ;
173 -> 174 ;
175 [label="gini = 0.498\nsamples = 36\nvalue = [17, 19]\nclass = e", fillcolor="#399de51b"] ;
173 -> 175 ;
176 [label="gini = 0.495\nsamples = 198\nvalue = [109, 89]\nclass = T", fillcolor="#e581392f"] ;
172 -> 176 ;
177 [label="country <= 3.5\ngini = 0.473\nsamples = 52\nvalue = [32, 20]\nclass = T", fillcolor="#e5813960"] ;
161 -> 177 ;
178 [label="country <= 1.5\ngini = 0.444\nsamples = 39\nvalue = [26, 13]\nclass = T", fillcolor="#e581397f"] ;
177 -> 178 ;
179 [label="browser_language <= 1.5\ngini = 0.485\nsamples = 29\nvalue = [17, 12]\nclass = T", fillcolor="#e581394b"] ;
178 -> 179 ;
180 [label="gini = 0.48\nsamples = 5\nvalue = [2, 3]\nclass = e", fillcolor="#399de555"] ;
179 -> 180 ;
181 [label="gini = 0.469\nsamples = 24\nvalue = [15, 9]\nclass = T", fillcolor="#e5813966"] ;
179 -> 181 ;
182 [label="country <= 2.5\ngini = 0.18\nsamples = 10\nvalue = [9, 1]\nclass = T", fillcolor="#e58139e3"] ;
178 -> 182 ;
183 [label="gini = 0.0\nsamples = 7\nvalue = [7, 0]\nclass = T", fillcolor="#e58139ff"] ;
182 -> 183 ;
184 [label="gini = 0.444\nsamples = 3\nvalue = [2, 1]\nclass = T", fillcolor="#e581397f"] ;
182 -> 184 ;
185 [label="gini = 0.497\nsamples = 13\nvalue = [6, 7]\nclass = e", fillcolor="#399de524"] ;
177 -> 185 ;
186 [label="country <= 1.5\ngini = 0.5\nsamples = 4054\nvalue = [2051, 2003]\nclass = T", fillcolor="#e5813906"] ;
160 -> 186 ;
187 [label="browser_language <= 1.5\ngini = 0.5\nsamples = 2324\nvalue = [1193, 1131]\nclass = T", fillcolor="#e581390d"] ;
186 -> 187 ;
188 [label="source <= 1.5\ngini = 0.495\nsamples = 404\nvalue = [222, 182]\nclass = T", fillcolor="#e581392e"] ;
187 -> 188 ;
189 [label="conversion <= 0.5\ngini = 0.497\nsamples = 191\nvalue = [103, 88]\nclass = T", fillcolor="#e5813925"] ;
188 -> 189 ;
190 [label="gini = 0.497\nsamples = 183\nvalue = [98, 85]\nclass = T", fillcolor="#e5813922"] ;
189 -> 190 ;
191 [label="gini = 0.469\nsamples = 8\nvalue = [5, 3]\nclass = T", fillcolor="#e5813966"] ;
189 -> 191 ;
192 [label="conversion <= 0.5\ngini = 0.493\nsamples = 213\nvalue = [119, 94]\nclass = T", fillcolor="#e5813936"] ;
188 -> 192 ;
193 [label="gini = 0.493\nsamples = 202\nvalue = [113, 89]\nclass = T", fillcolor="#e5813936"] ;
192 -> 193 ;
194 [label="gini = 0.496\nsamples = 11\nvalue = [6, 5]\nclass = T", fillcolor="#e581392a"] ;
192 -> 194 ;
195 [label="conversion <= 0.5\ngini = 0.5\nsamples = 1920\nvalue = [971, 949]\nclass = T", fillcolor="#e5813906"] ;
187 -> 195 ;
196 [label="source <= 1.5\ngini = 0.5\nsamples = 1839\nvalue = [934, 905]\nclass = T", fillcolor="#e5813908"] ;
195 -> 196 ;
197 [label="gini = 0.5\nsamples = 926\nvalue = [471, 455]\nclass = T", fillcolor="#e5813909"] ;
196 -> 197 ;
198 [label="gini = 0.5\nsamples = 913\nvalue = [463, 450]\nclass = T", fillcolor="#e5813907"] ;
196 -> 198 ;
199 [label="source <= 1.5\ngini = 0.496\nsamples = 81\nvalue = [37, 44]\nclass = e", fillcolor="#399de529"] ;
195 -> 199 ;
200 [label="gini = 0.493\nsamples = 50\nvalue = [22, 28]\nclass = e", fillcolor="#399de537"] ;
199 -> 200 ;
201 [label="gini = 0.499\nsamples = 31\nvalue = [15, 16]\nclass = e", fillcolor="#399de510"] ;
199 -> 201 ;
202 [label="conversion <= 0.5\ngini = 0.5\nsamples = 1730\nvalue = [858, 872]\nclass = e", fillcolor="#399de504"] ;
186 -> 202 ;
203 [label="browser_language <= 1.5\ngini = 0.5\nsamples = 1650\nvalue = [813, 837]\nclass = e", fillcolor="#399de507"] ;
202 -> 203 ;
204 [label="source <= 1.5\ngini = 0.496\nsamples = 273\nvalue = [125, 148]\nclass = e", fillcolor="#399de528"] ;
203 -> 204 ;
205 [label="country <= 2.5\ngini = 0.5\nsamples = 123\nvalue = [62, 61]\nclass = T", fillcolor="#e5813904"] ;
204 -> 205 ;
206 [label="gini = 0.5\nsamples = 41\nvalue = [20, 21]\nclass = e", fillcolor="#399de50c"] ;
205 -> 206 ;
207 [label="country <= 3.5\ngini = 0.5\nsamples = 82\nvalue = [42, 40]\nclass = T", fillcolor="#e581390c"] ;
205 -> 207 ;
208 [label="gini = 0.498\nsamples = 17\nvalue = [9, 8]\nclass = T", fillcolor="#e581391c"] ;
207 -> 208 ;
209 [label="gini = 0.5\nsamples = 65\nvalue = [33, 32]\nclass = T", fillcolor="#e5813908"] ;
207 -> 209 ;
210 [label="country <= 2.5\ngini = 0.487\nsamples = 150\nvalue = [63, 87]\nclass = e", fillcolor="#399de546"] ;
204 -> 210 ;
211 [label="gini = 0.457\nsamples = 51\nvalue = [18, 33]\nclass = e", fillcolor="#399de574"] ;
210 -> 211 ;
212 [label="country <= 3.5\ngini = 0.496\nsamples = 99\nvalue = [45, 54]\nclass = e", fillcolor="#399de52a"] ;
210 -> 212 ;
213 [label="gini = 0.5\nsamples = 18\nvalue = [9, 9]\nclass = T", fillcolor="#e5813900"] ;
212 -> 213 ;
214 [label="gini = 0.494\nsamples = 81\nvalue = [36, 45]\nclass = e", fillcolor="#399de533"] ;
212 -> 214 ;
215 [label="country <= 3.5\ngini = 0.5\nsamples = 1377\nvalue = [688, 689]\nclass = e", fillcolor="#399de500"] ;
203 -> 215 ;
216 [label="source <= 1.5\ngini = 0.5\nsamples = 633\nvalue = [324, 309]\nclass = T", fillcolor="#e581390c"] ;
215 -> 216 ;
217 [label="country <= 2.5\ngini = 0.5\nsamples = 316\nvalue = [156, 160]\nclass = e", fillcolor="#399de506"] ;
216 -> 217 ;
218 [label="gini = 0.5\nsamples = 232\nvalue = [113, 119]\nclass = e", fillcolor="#399de50d"] ;
217 -> 218 ;
219 [label="gini = 0.5\nsamples = 84\nvalue = [43, 41]\nclass = T", fillcolor="#e581390c"] ;
217 -> 219 ;
220 [label="country <= 2.5\ngini = 0.498\nsamples = 317\nvalue = [168, 149]\nclass = T", fillcolor="#e581391d"] ;
216 -> 220 ;
221 [label="gini = 0.499\nsamples = 233\nvalue = [122, 111]\nclass = T", fillcolor="#e5813917"] ;
220 -> 221 ;
222 [label="gini = 0.495\nsamples = 84\nvalue = [46, 38]\nclass = T", fillcolor="#e581392c"] ;
220 -> 222 ;
223 [label="source <= 1.5\ngini = 0.5\nsamples = 744\nvalue = [364, 380]\nclass = e", fillcolor="#399de50b"] ;
215 -> 223 ;
224 [label="gini = 0.499\nsamples = 368\nvalue = [178, 190]\nclass = e", fillcolor="#399de510"] ;
223 -> 224 ;
225 [label="gini = 0.5\nsamples = 376\nvalue = [186, 190]\nclass = e", fillcolor="#399de505"] ;
223 -> 225 ;
226 [label="source <= 1.5\ngini = 0.492\nsamples = 80\nvalue = [45, 35]\nclass = T", fillcolor="#e5813939"] ;
202 -> 226 ;
227 [label="country <= 2.5\ngini = 0.472\nsamples = 42\nvalue = [26, 16]\nclass = T", fillcolor="#e5813962"] ;
226 -> 227 ;
228 [label="browser_language <= 1.5\ngini = 0.42\nsamples = 10\nvalue = [7, 3]\nclass = T", fillcolor="#e5813992"] ;
227 -> 228 ;
229 [label="gini = 0.5\nsamples = 2\nvalue = [1, 1]\nclass = T", fillcolor="#e5813900"] ;
228 -> 229 ;
230 [label="gini = 0.375\nsamples = 8\nvalue = [6, 2]\nclass = T", fillcolor="#e58139aa"] ;
228 -> 230 ;
231 [label="browser_language <= 1.5\ngini = 0.482\nsamples = 32\nvalue = [19, 13]\nclass = T", fillcolor="#e5813951"] ;
227 -> 231 ;
232 [label="country <= 3.5\ngini = 0.375\nsamples = 8\nvalue = [6, 2]\nclass = T", fillcolor="#e58139aa"] ;
231 -> 232 ;
233 [label="gini = 0.0\nsamples = 1\nvalue = [1, 0]\nclass = T", fillcolor="#e58139ff"] ;
232 -> 233 ;
234 [label="gini = 0.408\nsamples = 7\nvalue = [5, 2]\nclass = T", fillcolor="#e5813999"] ;
232 -> 234 ;
235 [label="country <= 3.5\ngini = 0.497\nsamples = 24\nvalue = [13, 11]\nclass = T", fillcolor="#e5813927"] ;
231 -> 235 ;
236 [label="gini = 0.375\nsamples = 4\nvalue = [1, 3]\nclass = e", fillcolor="#399de5aa"] ;
235 -> 236 ;
237 [label="gini = 0.48\nsamples = 20\nvalue = [12, 8]\nclass = T", fillcolor="#e5813955"] ;
235 -> 237 ;
238 [label="country <= 2.5\ngini = 0.5\nsamples = 38\nvalue = [19, 19]\nclass = T", fillcolor="#e5813900"] ;
226 -> 238 ;
239 [label="browser_language <= 1.5\ngini = 0.496\nsamples = 11\nvalue = [6, 5]\nclass = T", fillcolor="#e581392a"] ;
238 -> 239 ;
240 [label="gini = 0.0\nsamples = 1\nvalue = [0, 1]\nclass = e", fillcolor="#399de5ff"] ;
239 -> 240 ;
241 [label="gini = 0.48\nsamples = 10\nvalue = [6, 4]\nclass = T", fillcolor="#e5813955"] ;
239 -> 241 ;
242 [label="country <= 3.5\ngini = 0.499\nsamples = 27\nvalue = [13, 14]\nclass = e", fillcolor="#399de512"] ;
238 -> 242 ;
243 [label="gini = 0.375\nsamples = 4\nvalue = [1, 3]\nclass = e", fillcolor="#399de5aa"] ;
242 -> 243 ;
244 [label="browser_language <= 1.5\ngini = 0.499\nsamples = 23\nvalue = [12, 11]\nclass = T", fillcolor="#e5813915"] ;
242 -> 244 ;
245 [label="gini = 0.48\nsamples = 5\nvalue = [3, 2]\nclass = T", fillcolor="#e5813955"] ;
244 -> 245 ;
246 [label="gini = 0.5\nsamples = 18\nvalue = [9, 9]\nclass = T", fillcolor="#e5813900"] ;
244 -> 246 ;
247 [label="source <= 0.5\ngini = 0.5\nsamples = 171515\nvalue = [85557, 85958]\nclass = e", fillcolor="#399de501"] ;
111 -> 247 ;
248 [label="country <= 2.5\ngini = 0.5\nsamples = 34495\nvalue = [17341, 17154]\nclass = T", fillcolor="#e5813903"] ;
247 -> 248 ;
249 [label="browser <= 2.5\ngini = 0.5\nsamples = 24356\nvalue = [12287, 12069]\nclass = T", fillcolor="#e5813905"] ;
248 -> 249 ;
250 [label="conversion <= 0.5\ngini = 0.5\nsamples = 18229\nvalue = [9140, 9089]\nclass = T", fillcolor="#e5813901"] ;
249 -> 250 ;
251 [label="country <= 1.5\ngini = 0.5\nsamples = 17263\nvalue = [8676, 8587]\nclass = T", fillcolor="#e5813903"] ;
250 -> 251 ;
252 [label="browser_language <= 1.5\ngini = 0.5\nsamples = 13759\nvalue = [6944, 6815]\nclass = T", fillcolor="#e5813905"] ;
251 -> 252 ;
253 [label="browser_language <= 0.5\ngini = 0.5\nsamples = 11839\nvalue = [5958, 5881]\nclass = T", fillcolor="#e5813903"] ;
252 -> 253 ;
254 [label="browser <= 1.5\ngini = 0.5\nsamples = 11450\nvalue = [5768, 5682]\nclass = T", fillcolor="#e5813904"] ;
253 -> 254 ;
255 [label="gini = 0.5\nsamples = 4571\nvalue = [2305, 2266]\nclass = T", fillcolor="#e5813904"] ;
254 -> 255 ;
256 [label="gini = 0.5\nsamples = 6879\nvalue = [3463, 3416]\nclass = T", fillcolor="#e5813903"] ;
254 -> 256 ;
257 [label="device <= 0.5\ngini = 0.5\nsamples = 389\nvalue = [190, 199]\nclass = e", fillcolor="#399de50c"] ;
253 -> 257 ;
258 [label="gini = 0.486\nsamples = 137\nvalue = [57, 80]\nclass = e", fillcolor="#399de549"] ;
257 -> 258 ;
259 [label="gini = 0.498\nsamples = 252\nvalue = [133, 119]\nclass = T", fillcolor="#e581391b"] ;
257 -> 259 ;
260 [label="browser <= 1.5\ngini = 0.5\nsamples = 1920\nvalue = [986, 934]\nclass = T", fillcolor="#e581390d"] ;
252 -> 260 ;
261 [label="gini = 0.5\nsamples = 743\nvalue = [374, 369]\nclass = T", fillcolor="#e5813903"] ;
260 -> 261 ;
262 [label="gini = 0.499\nsamples = 1177\nvalue = [612, 565]\nclass = T", fillcolor="#e5813914"] ;
260 -> 262 ;
263 [label="browser_language <= 1.5\ngini = 0.5\nsamples = 3504\nvalue = [1732, 1772]\nclass = e", fillcolor="#399de506"] ;
251 -> 263 ;
264 [label="browser_language <= 0.5\ngini = 0.5\nsamples = 3016\nvalue = [1486, 1530]\nclass = e", fillcolor="#399de507"] ;
263 -> 264 ;
265 [label="browser <= 1.5\ngini = 0.5\nsamples = 2923\nvalue = [1444, 1479]\nclass = e", fillcolor="#399de506"] ;
264 -> 265 ;
266 [label="gini = 0.5\nsamples = 1145\nvalue = [570, 575]\nclass = e", fillcolor="#399de502"] ;
265 -> 266 ;
267 [label="gini = 0.5\nsamples = 1778\nvalue = [874, 904]\nclass = e", fillcolor="#399de508"] ;
265 -> 267 ;
268 [label="browser <= 1.5\ngini = 0.495\nsamples = 93\nvalue = [42, 51]\nclass = e", fillcolor="#399de52d"] ;
264 -> 268 ;
269 [label="gini = 0.495\nsamples = 42\nvalue = [19, 23]\nclass = e", fillcolor="#399de52c"] ;
268 -> 269 ;
270 [label="gini = 0.495\nsamples = 51\nvalue = [23, 28]\nclass = e", fillcolor="#399de52e"] ;
268 -> 270 ;
271 [label="browser <= 1.5\ngini = 0.5\nsamples = 488\nvalue = [246, 242]\nclass = T", fillcolor="#e5813904"] ;
263 -> 271 ;
272 [label="gini = 0.499\nsamples = 182\nvalue = [94, 88]\nclass = T", fillcolor="#e5813910"] ;
271 -> 272 ;
273 [label="gini = 0.5\nsamples = 306\nvalue = [152, 154]\nclass = e", fillcolor="#399de503"] ;
271 -> 273 ;
274 [label="country <= 1.5\ngini = 0.499\nsamples = 966\nvalue = [464, 502]\nclass = e", fillcolor="#399de513"] ;
250 -> 274 ;
275 [label="browser <= 1.5\ngini = 0.498\nsamples = 765\nvalue = [356, 409]\nclass = e", fillcolor="#399de521"] ;
274 -> 275 ;
276 [label="browser_language <= 0.5\ngini = 0.49\nsamples = 286\nvalue = [123, 163]\nclass = e", fillcolor="#399de53f"] ;
275 -> 276 ;
277 [label="gini = 0.489\nsamples = 238\nvalue = [101, 137]\nclass = e", fillcolor="#399de543"] ;
276 -> 277 ;
278 [label="browser_language <= 1.5\ngini = 0.497\nsamples = 48\nvalue = [22, 26]\nclass = e", fillcolor="#399de527"] ;
276 -> 278 ;
279 [label="gini = 0.5\nsamples = 6\nvalue = [3, 3]\nclass = T", fillcolor="#e5813900"] ;
278 -> 279 ;
280 [label="gini = 0.495\nsamples = 42\nvalue = [19, 23]\nclass = e", fillcolor="#399de52c"] ;
278 -> 280 ;
281 [label="browser_language <= 1.5\ngini = 0.5\nsamples = 479\nvalue = [233, 246]\nclass = e", fillcolor="#399de50d"] ;
275 -> 281 ;
282 [label="browser_language <= 0.5\ngini = 0.5\nsamples = 403\nvalue = [199, 204]\nclass = e", fillcolor="#399de506"] ;
281 -> 282 ;
283 [label="gini = 0.5\nsamples = 385\nvalue = [190, 195]\nclass = e", fillcolor="#399de507"] ;
282 -> 283 ;
284 [label="gini = 0.5\nsamples = 18\nvalue = [9, 9]\nclass = T", fillcolor="#e5813900"] ;
282 -> 284 ;
285 [label="gini = 0.494\nsamples = 76\nvalue = [34, 42]\nclass = e", fillcolor="#399de531"] ;
281 -> 285 ;
286 [label="browser_language <= 1.5\ngini = 0.497\nsamples = 201\nvalue = [108, 93]\nclass = T", fillcolor="#e5813923"] ;
274 -> 286 ;
287 [label="browser <= 1.5\ngini = 0.5\nsamples = 170\nvalue = [87, 83]\nclass = T", fillcolor="#e581390c"] ;
286 -> 287 ;
288 [label="browser_language <= 0.5\ngini = 0.498\nsamples = 64\nvalue = [30, 34]\nclass = e", fillcolor="#399de51e"] ;
287 -> 288 ;
289 [label="gini = 0.497\nsamples = 63\nvalue = [29, 34]\nclass = e", fillcolor="#399de525"] ;
288 -> 289 ;
290 [label="gini = 0.0\nsamples = 1\nvalue = [1, 0]\nclass = T", fillcolor="#e58139ff"] ;
288 -> 290 ;
291 [label="browser_language <= 0.5\ngini = 0.497\nsamples = 106\nvalue = [57, 49]\nclass = T", fillcolor="#e5813924"] ;
287 -> 291 ;
292 [label="gini = 0.495\nsamples = 104\nvalue = [57, 47]\nclass = T", fillcolor="#e581392d"] ;
291 -> 292 ;
293 [label="gini = 0.0\nsamples = 2\nvalue = [0, 2]\nclass = e", fillcolor="#399de5ff"] ;
291 -> 293 ;
294 [label="browser <= 1.5\ngini = 0.437\nsamples = 31\nvalue = [21, 10]\nclass = T", fillcolor="#e5813986"] ;
286 -> 294 ;
295 [label="gini = 0.32\nsamples = 10\nvalue = [8, 2]\nclass = T", fillcolor="#e58139bf"] ;
294 -> 295 ;
296 [label="gini = 0.472\nsamples = 21\nvalue = [13, 8]\nclass = T", fillcolor="#e5813962"] ;
294 -> 296 ;
297 [label="country <= 1.5\ngini = 0.5\nsamples = 6127\nvalue = [3147, 2980]\nclass = T", fillcolor="#e581390e"] ;
249 -> 297 ;
298 [label="conversion <= 0.5\ngini = 0.5\nsamples = 4908\nvalue = [2509, 2399]\nclass = T", fillcolor="#e581390b"] ;
297 -> 298 ;
299 [label="browser_language <= 1.5\ngini = 0.5\nsamples = 4657\nvalue = [2387, 2270]\nclass = T", fillcolor="#e581390c"] ;
298 -> 299 ;
300 [label="device <= 0.5\ngini = 0.5\nsamples = 4038\nvalue = [2075, 1963]\nclass = T", fillcolor="#e581390e"] ;
299 -> 300 ;
301 [label="browser_language <= 0.5\ngini = 0.499\nsamples = 1912\nvalue = [993, 919]\nclass = T", fillcolor="#e5813913"] ;
300 -> 301 ;
302 [label="gini = 0.499\nsamples = 1843\nvalue = [954, 889]\nclass = T", fillcolor="#e5813911"] ;
301 -> 302 ;
303 [label="gini = 0.491\nsamples = 69\nvalue = [39, 30]\nclass = T", fillcolor="#e581393b"] ;
301 -> 303 ;
304 [label="browser_language <= 0.5\ngini = 0.5\nsamples = 2126\nvalue = [1082, 1044]\nclass = T", fillcolor="#e5813909"] ;
300 -> 304 ;
305 [label="gini = 0.5\nsamples = 2055\nvalue = [1048, 1007]\nclass = T", fillcolor="#e581390a"] ;
304 -> 305 ;
306 [label="gini = 0.499\nsamples = 71\nvalue = [34, 37]\nclass = e", fillcolor="#399de515"] ;
304 -> 306 ;
307 [label="browser <= 3.5\ngini = 0.5\nsamples = 619\nvalue = [312, 307]\nclass = T", fillcolor="#e5813904"] ;
299 -> 307 ;
308 [label="gini = 0.5\nsamples = 272\nvalue = [132, 140]\nclass = e", fillcolor="#399de50f"] ;
307 -> 308 ;
309 [label="gini = 0.499\nsamples = 347\nvalue = [180, 167]\nclass = T", fillcolor="#e5813912"] ;
307 -> 309 ;
310 [label="browser_language <= 1.5\ngini = 0.5\nsamples = 251\nvalue = [122, 129]\nclass = e", fillcolor="#399de50e"] ;
298 -> 310 ;
311 [label="browser_language <= 0.5\ngini = 0.499\nsamples = 212\nvalue = [101, 111]\nclass = e", fillcolor="#399de517"] ;
310 -> 311 ;
312 [label="device <= 0.5\ngini = 0.5\nsamples = 204\nvalue = [99, 105]\nclass = e", fillcolor="#399de50f"] ;
311 -> 312 ;
313 [label="gini = 0.498\nsamples = 91\nvalue = [43, 48]\nclass = e", fillcolor="#399de51b"] ;
312 -> 313 ;
314 [label="gini = 0.5\nsamples = 113\nvalue = [56, 57]\nclass = e", fillcolor="#399de504"] ;
312 -> 314 ;
315 [label="device <= 0.5\ngini = 0.375\nsamples = 8\nvalue = [2, 6]\nclass = e", fillcolor="#399de5aa"] ;
311 -> 315 ;
316 [label="gini = 0.48\nsamples = 5\nvalue = [2, 3]\nclass = e", fillcolor="#399de555"] ;
315 -> 316 ;
317 [label="gini = 0.0\nsamples = 3\nvalue = [0, 3]\nclass = e", fillcolor="#399de5ff"] ;
315 -> 317 ;
318 [label="device <= 0.5\ngini = 0.497\nsamples = 39\nvalue = [21, 18]\nclass = T", fillcolor="#e5813924"] ;
310 -> 318 ;
319 [label="gini = 0.48\nsamples = 20\nvalue = [12, 8]\nclass = T", fillcolor="#e5813955"] ;
318 -> 319 ;
320 [label="gini = 0.499\nsamples = 19\nvalue = [9, 10]\nclass = e", fillcolor="#399de519"] ;
318 -> 320 ;
321 [label="conversion <= 0.5\ngini = 0.499\nsamples = 1219\nvalue = [638, 581]\nclass = T", fillcolor="#e5813917"] ;
297 -> 321 ;
322 [label="browser <= 3.5\ngini = 0.499\nsamples = 1163\nvalue = [604, 559]\nclass = T", fillcolor="#e5813913"] ;
321 -> 322 ;
323 [label="browser_language <= 0.5\ngini = 0.5\nsamples = 558\nvalue = [278, 280]\nclass = e", fillcolor="#399de502"] ;
322 -> 323 ;
324 [label="gini = 0.5\nsamples = 459\nvalue = [229, 230]\nclass = e", fillcolor="#399de501"] ;
323 -> 324 ;
325 [label="browser_language <= 1.5\ngini = 0.5\nsamples = 99\nvalue = [49, 50]\nclass = e", fillcolor="#399de505"] ;
323 -> 325 ;
326 [label="gini = 0.499\nsamples = 19\nvalue = [9, 10]\nclass = e", fillcolor="#399de519"] ;
325 -> 326 ;
327 [label="gini = 0.5\nsamples = 80\nvalue = [40, 40]\nclass = T", fillcolor="#e5813900"] ;
325 -> 327 ;
328 [label="browser_language <= 0.5\ngini = 0.497\nsamples = 605\nvalue = [326, 279]\nclass = T", fillcolor="#e5813925"] ;
322 -> 328 ;
329 [label="gini = 0.496\nsamples = 501\nvalue = [272, 229]\nclass = T", fillcolor="#e5813928"] ;
328 -> 329 ;
330 [label="browser_language <= 1.5\ngini = 0.499\nsamples = 104\nvalue = [54, 50]\nclass = T", fillcolor="#e5813913"] ;
328 -> 330 ;
331 [label="gini = 0.494\nsamples = 18\nvalue = [8, 10]\nclass = e", fillcolor="#399de533"] ;
330 -> 331 ;
332 [label="gini = 0.498\nsamples = 86\nvalue = [46, 40]\nclass = T", fillcolor="#e5813921"] ;
330 -> 332 ;
333 [label="browser_language <= 0.5\ngini = 0.477\nsamples = 56\nvalue = [34, 22]\nclass = T", fillcolor="#e581395a"] ;
321 -> 333 ;
334 [label="browser <= 3.5\ngini = 0.486\nsamples = 48\nvalue = [28, 20]\nclass = T", fillcolor="#e5813949"] ;
333 -> 334 ;
335 [label="gini = 0.465\nsamples = 19\nvalue = [12, 7]\nclass = T", fillcolor="#e581396a"] ;
334 -> 335 ;
336 [label="gini = 0.495\nsamples = 29\nvalue = [16, 13]\nclass = T", fillcolor="#e5813930"] ;
334 -> 336 ;
337 [label="browser_language <= 1.5\ngini = 0.375\nsamples = 8\nvalue = [6, 2]\nclass = T", fillcolor="#e58139aa"] ;
333 -> 337 ;
338 [label="gini = 0.0\nsamples = 1\nvalue = [1, 0]\nclass = T", fillcolor="#e58139ff"] ;
337 -> 338 ;
339 [label="browser <= 3.5\ngini = 0.408\nsamples = 7\nvalue = [5, 2]\nclass = T", fillcolor="#e5813999"] ;
337 -> 339 ;
340 [label="gini = 0.375\nsamples = 4\nvalue = [3, 1]\nclass = T", fillcolor="#e58139aa"] ;
339 -> 340 ;
341 [label="gini = 0.444\nsamples = 3\nvalue = [2, 1]\nclass = T", fillcolor="#e581397f"] ;
339 -> 341 ;
342 [label="browser <= 2.5\ngini = 0.5\nsamples = 10139\nvalue = [5054, 5085]\nclass = e", fillcolor="#399de502"] ;
248 -> 342 ;
343 [label="browser_language <= 1.5\ngini = 0.5\nsamples = 7597\nvalue = [3837, 3760]\nclass = T", fillcolor="#e5813905"] ;
342 -> 343 ;
344 [label="browser <= 1.5\ngini = 0.5\nsamples = 6508\nvalue = [3302, 3206]\nclass = T", fillcolor="#e5813907"] ;
343 -> 344 ;
345 [label="country <= 3.5\ngini = 0.5\nsamples = 2573\nvalue = [1288, 1285]\nclass = T", fillcolor="#e5813901"] ;
344 -> 345 ;
346 [label="browser_language <= 0.5\ngini = 0.498\nsamples = 415\nvalue = [222, 193]\nclass = T", fillcolor="#e5813921"] ;
345 -> 346 ;
347 [label="conversion <= 0.5\ngini = 0.497\nsamples = 404\nvalue = [217, 187]\nclass = T", fillcolor="#e5813923"] ;
346 -> 347 ;
348 [label="gini = 0.497\nsamples = 384\nvalue = [206, 178]\nclass = T", fillcolor="#e5813923"] ;
347 -> 348 ;
349 [label="gini = 0.495\nsamples = 20\nvalue = [11, 9]\nclass = T", fillcolor="#e581392e"] ;
347 -> 349 ;
350 [label="gini = 0.496\nsamples = 11\nvalue = [5, 6]\nclass = e", fillcolor="#399de52a"] ;
346 -> 350 ;
351 [label="browser_language <= 0.5\ngini = 0.5\nsamples = 2158\nvalue = [1066, 1092]\nclass = e", fillcolor="#399de506"] ;
345 -> 351 ;
352 [label="conversion <= 0.5\ngini = 0.5\nsamples = 2092\nvalue = [1030, 1062]\nclass = e", fillcolor="#399de508"] ;
351 -> 352 ;
353 [label="gini = 0.5\nsamples = 1997\nvalue = [984, 1013]\nclass = e", fillcolor="#399de507"] ;
352 -> 353 ;
354 [label="gini = 0.5\nsamples = 95\nvalue = [46, 49]\nclass = e", fillcolor="#399de510"] ;
352 -> 354 ;
355 [label="conversion <= 0.5\ngini = 0.496\nsamples = 66\nvalue = [36, 30]\nclass = T", fillcolor="#e581392a"] ;
351 -> 355 ;
356 [label="gini = 0.497\nsamples = 65\nvalue = [35, 30]\nclass = T", fillcolor="#e5813924"] ;
355 -> 356 ;
357 [label="gini = 0.0\nsamples = 1\nvalue = [1, 0]\nclass = T", fillcolor="#e58139ff"] ;
355 -> 357 ;
358 [label="country <= 3.5\ngini = 0.5\nsamples = 3935\nvalue = [2014, 1921]\nclass = T", fillcolor="#e581390c"] ;
344 -> 358 ;
359 [label="browser_language <= 0.5\ngini = 0.498\nsamples = 644\nvalue = [304, 340]\nclass = e", fillcolor="#399de51b"] ;
358 -> 359 ;
360 [label="conversion <= 0.5\ngini = 0.499\nsamples = 622\nvalue = [296, 326]\nclass = e", fillcolor="#399de517"] ;
359 -> 360 ;
361 [label="gini = 0.499\nsamples = 586\nvalue = [281, 305]\nclass = e", fillcolor="#399de514"] ;
360 -> 361 ;
362 [label="gini = 0.486\nsamples = 36\nvalue = [15, 21]\nclass = e", fillcolor="#399de549"] ;
360 -> 362 ;
363 [label="conversion <= 0.5\ngini = 0.463\nsamples = 22\nvalue = [8, 14]\nclass = e", fillcolor="#399de56d"] ;
359 -> 363 ;
364 [label="gini = 0.444\nsamples = 21\nvalue = [7, 14]\nclass = e", fillcolor="#399de57f"] ;
363 -> 364 ;
365 [label="gini = 0.0\nsamples = 1\nvalue = [1, 0]\nclass = T", fillcolor="#e58139ff"] ;
363 -> 365 ;
366 [label="conversion <= 0.5\ngini = 0.499\nsamples = 3291\nvalue = [1710, 1581]\nclass = T", fillcolor="#e5813913"] ;
358 -> 366 ;
367 [label="browser_language <= 0.5\ngini = 0.499\nsamples = 3119\nvalue = [1618, 1501]\nclass = T", fillcolor="#e5813912"] ;
366 -> 367 ;
368 [label="gini = 0.499\nsamples = 3002\nvalue = [1558, 1444]\nclass = T", fillcolor="#e5813913"] ;
367 -> 368 ;
369 [label="gini = 0.5\nsamples = 117\nvalue = [60, 57]\nclass = T", fillcolor="#e581390d"] ;
367 -> 369 ;
370 [label="browser_language <= 0.5\ngini = 0.498\nsamples = 172\nvalue = [92, 80]\nclass = T", fillcolor="#e5813921"] ;
366 -> 370 ;
371 [label="gini = 0.497\nsamples = 168\nvalue = [90, 78]\nclass = T", fillcolor="#e5813922"] ;
370 -> 371 ;
372 [label="gini = 0.5\nsamples = 4\nvalue = [2, 2]\nclass = T", fillcolor="#e5813900"] ;
370 -> 372 ;
373 [label="browser <= 1.5\ngini = 0.5\nsamples = 1089\nvalue = [535, 554]\nclass = e", fillcolor="#399de509"] ;
343 -> 373 ;
374 [label="country <= 3.5\ngini = 0.497\nsamples = 440\nvalue = [238, 202]\nclass = T", fillcolor="#e5813927"] ;
373 -> 374 ;
375 [label="conversion <= 0.5\ngini = 0.45\nsamples = 79\nvalue = [52, 27]\nclass = T", fillcolor="#e581397b"] ;
374 -> 375 ;
376 [label="gini = 0.45\nsamples = 73\nvalue = [48, 25]\nclass = T", fillcolor="#e581397a"] ;
375 -> 376 ;
377 [label="gini = 0.444\nsamples = 6\nvalue = [4, 2]\nclass = T", fillcolor="#e581397f"] ;
375 -> 377 ;
378 [label="conversion <= 0.5\ngini = 0.5\nsamples = 361\nvalue = [186, 175]\nclass = T", fillcolor="#e581390f"] ;
374 -> 378 ;
379 [label="gini = 0.499\nsamples = 345\nvalue = [180, 165]\nclass = T", fillcolor="#e5813915"] ;
378 -> 379 ;
380 [label="gini = 0.469\nsamples = 16\nvalue = [6, 10]\nclass = e", fillcolor="#399de566"] ;
378 -> 380 ;
381 [label="conversion <= 0.5\ngini = 0.496\nsamples = 649\nvalue = [297, 352]\nclass = e", fillcolor="#399de528"] ;
373 -> 381 ;
382 [label="country <= 3.5\ngini = 0.495\nsamples = 619\nvalue = [278, 341]\nclass = e", fillcolor="#399de52f"] ;
381 -> 382 ;
383 [label="gini = 0.499\nsamples = 112\nvalue = [53, 59]\nclass = e", fillcolor="#399de51a"] ;
382 -> 383 ;
384 [label="gini = 0.494\nsamples = 507\nvalue = [225, 282]\nclass = e", fillcolor="#399de534"] ;
382 -> 384 ;
385 [label="country <= 3.5\ngini = 0.464\nsamples = 30\nvalue = [19, 11]\nclass = T", fillcolor="#e581396b"] ;
381 -> 385 ;
386 [label="gini = 0.375\nsamples = 4\nvalue = [3, 1]\nclass = T", fillcolor="#e58139aa"] ;
385 -> 386 ;
387 [label="gini = 0.473\nsamples = 26\nvalue = [16, 10]\nclass = T", fillcolor="#e5813960"] ;
385 -> 387 ;
388 [label="browser <= 3.5\ngini = 0.499\nsamples = 2542\nvalue = [1217, 1325]\nclass = e", fillcolor="#399de515"] ;
342 -> 388 ;
389 [label="conversion <= 0.5\ngini = 0.5\nsamples = 1164\nvalue = [566, 598]\nclass = e", fillcolor="#399de50e"] ;
388 -> 389 ;
390 [label="browser_language <= 1.5\ngini = 0.499\nsamples = 1098\nvalue = [529, 569]\nclass = e", fillcolor="#399de512"] ;
389 -> 390 ;
391 [label="country <= 3.5\ngini = 0.499\nsamples = 944\nvalue = [453, 491]\nclass = e", fillcolor="#399de514"] ;
390 -> 391 ;
392 [label="browser_language <= 0.5\ngini = 0.498\nsamples = 129\nvalue = [60, 69]\nclass = e", fillcolor="#399de521"] ;
391 -> 392 ;
393 [label="gini = 0.497\nsamples = 123\nvalue = [57, 66]\nclass = e", fillcolor="#399de523"] ;
392 -> 393 ;
394 [label="gini = 0.5\nsamples = 6\nvalue = [3, 3]\nclass = T", fillcolor="#e5813900"] ;
392 -> 394 ;
395 [label="browser_language <= 0.5\ngini = 0.499\nsamples = 815\nvalue = [393, 422]\nclass = e", fillcolor="#399de512"] ;
391 -> 395 ;
396 [label="gini = 0.499\nsamples = 790\nvalue = [381, 409]\nclass = e", fillcolor="#399de511"] ;
395 -> 396 ;
397 [label="gini = 0.499\nsamples = 25\nvalue = [12, 13]\nclass = e", fillcolor="#399de514"] ;
395 -> 397 ;
398 [label="country <= 3.5\ngini = 0.5\nsamples = 154\nvalue = [76, 78]\nclass = e", fillcolor="#399de507"] ;
390 -> 398 ;
399 [label="gini = 0.498\nsamples = 32\nvalue = [17, 15]\nclass = T", fillcolor="#e581391e"] ;
398 -> 399 ;
400 [label="gini = 0.499\nsamples = 122\nvalue = [59, 63]\nclass = e", fillcolor="#399de510"] ;
398 -> 400 ;
401 [label="browser_language <= 1.0\ngini = 0.493\nsamples = 66\nvalue = [37, 29]\nclass = T", fillcolor="#e5813937"] ;
389 -> 401 ;
402 [label="country <= 3.5\ngini = 0.478\nsamples = 53\nvalue = [32, 21]\nclass = T", fillcolor="#e5813958"] ;
401 -> 402 ;
403 [label="gini = 0.5\nsamples = 8\nvalue = [4, 4]\nclass = T", fillcolor="#e5813900"] ;
402 -> 403 ;
404 [label="gini = 0.47\nsamples = 45\nvalue = [28, 17]\nclass = T", fillcolor="#e5813964"] ;
402 -> 404 ;
405 [label="country <= 3.5\ngini = 0.473\nsamples = 13\nvalue = [5, 8]\nclass = e", fillcolor="#399de560"] ;
401 -> 405 ;
406 [label="gini = 0.5\nsamples = 2\nvalue = [1, 1]\nclass = T", fillcolor="#e5813900"] ;
405 -> 406 ;
407 [label="gini = 0.463\nsamples = 11\nvalue = [4, 7]\nclass = e", fillcolor="#399de56d"] ;
405 -> 407 ;
408 [label="browser_language <= 0.5\ngini = 0.498\nsamples = 1378\nvalue = [651, 727]\nclass = e", fillcolor="#399de51b"] ;
388 -> 408 ;
409 [label="conversion <= 0.5\ngini = 0.499\nsamples = 1159\nvalue = [553, 606]\nclass = e", fillcolor="#399de516"] ;
408 -> 409 ;
410 [label="country <= 3.5\ngini = 0.499\nsamples = 1101\nvalue = [529, 572]\nclass = e", fillcolor="#399de513"] ;
409 -> 410 ;
411 [label="gini = 0.499\nsamples = 193\nvalue = [93, 100]\nclass = e", fillcolor="#399de512"] ;
410 -> 411 ;
412 [label="gini = 0.499\nsamples = 908\nvalue = [436, 472]\nclass = e", fillcolor="#399de513"] ;
410 -> 412 ;
413 [label="country <= 3.5\ngini = 0.485\nsamples = 58\nvalue = [24, 34]\nclass = e", fillcolor="#399de54b"] ;
409 -> 413 ;
414 [label="gini = 0.48\nsamples = 10\nvalue = [4, 6]\nclass = e", fillcolor="#399de555"] ;
413 -> 414 ;
415 [label="gini = 0.486\nsamples = 48\nvalue = [20, 28]\nclass = e", fillcolor="#399de549"] ;
413 -> 415 ;
416 [label="country <= 3.5\ngini = 0.494\nsamples = 219\nvalue = [98, 121]\nclass = e", fillcolor="#399de530"] ;
408 -> 416 ;
417 [label="conversion <= 0.5\ngini = 0.485\nsamples = 29\nvalue = [17, 12]\nclass = T", fillcolor="#e581394b"] ;
416 -> 417 ;
418 [label="browser_language <= 1.5\ngini = 0.49\nsamples = 28\nvalue = [16, 12]\nclass = T", fillcolor="#e5813940"] ;
417 -> 418 ;
419 [label="gini = 0.469\nsamples = 8\nvalue = [5, 3]\nclass = T", fillcolor="#e5813966"] ;
418 -> 419 ;
420 [label="gini = 0.495\nsamples = 20\nvalue = [11, 9]\nclass = T", fillcolor="#e581392e"] ;
418 -> 420 ;
421 [label="gini = 0.0\nsamples = 1\nvalue = [1, 0]\nclass = T", fillcolor="#e58139ff"] ;
417 -> 421 ;
422 [label="browser_language <= 1.5\ngini = 0.489\nsamples = 190\nvalue = [81, 109]\nclass = e", fillcolor="#399de542"] ;
416 -> 422 ;
423 [label="conversion <= 0.5\ngini = 0.473\nsamples = 26\nvalue = [10, 16]\nclass = e", fillcolor="#399de560"] ;
422 -> 423 ;
424 [label="gini = 0.476\nsamples = 23\nvalue = [9, 14]\nclass = e", fillcolor="#399de55b"] ;
423 -> 424 ;
425 [label="gini = 0.444\nsamples = 3\nvalue = [1, 2]\nclass = e", fillcolor="#399de57f"] ;
423 -> 425 ;
426 [label="conversion <= 0.5\ngini = 0.491\nsamples = 164\nvalue = [71, 93]\nclass = e", fillcolor="#399de53c"] ;
422 -> 426 ;
427 [label="gini = 0.49\nsamples = 158\nvalue = [68, 90]\nclass = e", fillcolor="#399de53e"] ;
426 -> 427 ;
428 [label="gini = 0.5\nsamples = 6\nvalue = [3, 3]\nclass = T", fillcolor="#e5813900"] ;
426 -> 428 ;
429 [label="browser <= 2.5\ngini = 0.5\nsamples = 137020\nvalue = [68216, 68804]\nclass = e", fillcolor="#399de502"] ;
247 -> 429 ;
430 [label="device <= 0.5\ngini = 0.5\nsamples = 102209\nvalue = [50758, 51451]\nclass = e", fillcolor="#399de503"] ;
429 -> 430 ;
431 [label="browser_language <= 0.5\ngini = 0.5\nsamples = 40428\nvalue = [20030, 20398]\nclass = e", fillcolor="#399de505"] ;
430 -> 431 ;
432 [label="country <= 2.5\ngini = 0.5\nsamples = 33601\nvalue = [16611, 16990]\nclass = e", fillcolor="#399de506"] ;
431 -> 432 ;
433 [label="country <= 1.5\ngini = 0.5\nsamples = 24063\nvalue = [11924, 12139]\nclass = e", fillcolor="#399de505"] ;
432 -> 433 ;
434 [label="source <= 1.5\ngini = 0.5\nsamples = 19381\nvalue = [9589, 9792]\nclass = e", fillcolor="#399de505"] ;
433 -> 434 ;
435 [label="conversion <= 0.5\ngini = 0.5\nsamples = 9693\nvalue = [4753, 4940]\nclass = e", fillcolor="#399de50a"] ;
434 -> 435 ;
436 [label="gini = 0.5\nsamples = 9206\nvalue = [4508, 4698]\nclass = e", fillcolor="#399de50a"] ;
435 -> 436 ;
437 [label="gini = 0.5\nsamples = 487\nvalue = [245, 242]\nclass = T", fillcolor="#e5813903"] ;
435 -> 437 ;
438 [label="conversion <= 0.5\ngini = 0.5\nsamples = 9688\nvalue = [4836, 4852]\nclass = e", fillcolor="#399de501"] ;
434 -> 438 ;
439 [label="gini = 0.5\nsamples = 9195\nvalue = [4599, 4596]\nclass = T", fillcolor="#e5813900"] ;
438 -> 439 ;
440 [label="gini = 0.499\nsamples = 493\nvalue = [237, 256]\nclass = e", fillcolor="#399de513"] ;
438 -> 440 ;
441 [label="source <= 1.5\ngini = 0.5\nsamples = 4682\nvalue = [2335, 2347]\nclass = e", fillcolor="#399de501"] ;
433 -> 441 ;
442 [label="conversion <= 0.5\ngini = 0.5\nsamples = 2370\nvalue = [1209, 1161]\nclass = T", fillcolor="#e581390a"] ;
441 -> 442 ;
443 [label="gini = 0.5\nsamples = 2243\nvalue = [1147, 1096]\nclass = T", fillcolor="#e581390b"] ;
442 -> 443 ;
444 [label="gini = 0.5\nsamples = 127\nvalue = [62, 65]\nclass = e", fillcolor="#399de50c"] ;
442 -> 444 ;
445 [label="conversion <= 0.5\ngini = 0.5\nsamples = 2312\nvalue = [1126, 1186]\nclass = e", fillcolor="#399de50d"] ;
441 -> 445 ;
446 [label="gini = 0.5\nsamples = 2177\nvalue = [1059, 1118]\nclass = e", fillcolor="#399de50d"] ;
445 -> 446 ;
447 [label="gini = 0.5\nsamples = 135\nvalue = [67, 68]\nclass = e", fillcolor="#399de504"] ;
445 -> 447 ;
448 [label="source <= 1.5\ngini = 0.5\nsamples = 9538\nvalue = [4687, 4851]\nclass = e", fillcolor="#399de509"] ;
432 -> 448 ;
449 [label="conversion <= 0.5\ngini = 0.5\nsamples = 4719\nvalue = [2334, 2385]\nclass = e", fillcolor="#399de505"] ;
448 -> 449 ;
450 [label="country <= 3.5\ngini = 0.5\nsamples = 4489\nvalue = [2207, 2282]\nclass = e", fillcolor="#399de508"] ;
449 -> 450 ;
451 [label="gini = 0.499\nsamples = 783\nvalue = [374, 409]\nclass = e", fillcolor="#399de516"] ;
450 -> 451 ;
452 [label="gini = 0.5\nsamples = 3706\nvalue = [1833, 1873]\nclass = e", fillcolor="#399de505"] ;
450 -> 452 ;
453 [label="country <= 3.5\ngini = 0.495\nsamples = 230\nvalue = [127, 103]\nclass = T", fillcolor="#e5813930"] ;
449 -> 453 ;
454 [label="gini = 0.5\nsamples = 45\nvalue = [23, 22]\nclass = T", fillcolor="#e581390b"] ;
453 -> 454 ;
455 [label="gini = 0.492\nsamples = 185\nvalue = [104, 81]\nclass = T", fillcolor="#e5813938"] ;
453 -> 455 ;
456 [label="conversion <= 0.5\ngini = 0.5\nsamples = 4819\nvalue = [2353, 2466]\nclass = e", fillcolor="#399de50c"] ;
448 -> 456 ;
457 [label="country <= 3.5\ngini = 0.5\nsamples = 4547\nvalue = [2231, 2316]\nclass = e", fillcolor="#399de509"] ;
456 -> 457 ;
458 [label="gini = 0.5\nsamples = 764\nvalue = [388, 376]\nclass = T", fillcolor="#e5813908"] ;
457 -> 458 ;
459 [label="gini = 0.5\nsamples = 3783\nvalue = [1843, 1940]\nclass = e", fillcolor="#399de50d"] ;
457 -> 459 ;
460 [label="country <= 3.5\ngini = 0.495\nsamples = 272\nvalue = [122, 150]\nclass = e", fillcolor="#399de530"] ;
456 -> 460 ;
461 [label="gini = 0.497\nsamples = 39\nvalue = [18, 21]\nclass = e", fillcolor="#399de524"] ;
460 -> 461 ;
462 [label="gini = 0.494\nsamples = 233\nvalue = [104, 129]\nclass = e", fillcolor="#399de531"] ;
460 -> 462 ;
463 [label="country <= 1.5\ngini = 0.5\nsamples = 6827\nvalue = [3419, 3408]\nclass = T", fillcolor="#e5813901"] ;
431 -> 463 ;
464 [label="browser_language <= 1.5\ngini = 0.5\nsamples = 3801\nvalue = [1862, 1939]\nclass = e", fillcolor="#399de50a"] ;
463 -> 464 ;
465 [label="conversion <= 0.5\ngini = 0.5\nsamples = 642\nvalue = [326, 316]\nclass = T", fillcolor="#e5813908"] ;
464 -> 465 ;
466 [label="source <= 1.5\ngini = 0.5\nsamples = 605\nvalue = [309, 296]\nclass = T", fillcolor="#e581390b"] ;
465 -> 466 ;
467 [label="gini = 0.499\nsamples = 302\nvalue = [159, 143]\nclass = T", fillcolor="#e581391a"] ;
466 -> 467 ;
468 [label="gini = 0.5\nsamples = 303\nvalue = [150, 153]\nclass = e", fillcolor="#399de505"] ;
466 -> 468 ;
469 [label="source <= 1.5\ngini = 0.497\nsamples = 37\nvalue = [17, 20]\nclass = e", fillcolor="#399de526"] ;
465 -> 469 ;
470 [label="gini = 0.401\nsamples = 18\nvalue = [5, 13]\nclass = e", fillcolor="#399de59d"] ;
469 -> 470 ;
471 [label="gini = 0.465\nsamples = 19\nvalue = [12, 7]\nclass = T", fillcolor="#e581396a"] ;
469 -> 471 ;
472 [label="source <= 1.5\ngini = 0.5\nsamples = 3159\nvalue = [1536, 1623]\nclass = e", fillcolor="#399de50e"] ;
464 -> 472 ;
473 [label="conversion <= 0.5\ngini = 0.499\nsamples = 1595\nvalue = [765, 830]\nclass = e", fillcolor="#399de514"] ;
472 -> 473 ;
474 [label="gini = 0.499\nsamples = 1519\nvalue = [727, 792]\nclass = e", fillcolor="#399de515"] ;
473 -> 474 ;
475 [label="gini = 0.5\nsamples = 76\nvalue = [38, 38]\nclass = T", fillcolor="#e5813900"] ;
473 -> 475 ;
476 [label="conversion <= 0.5\ngini = 0.5\nsamples = 1564\nvalue = [771, 793]\nclass = e", fillcolor="#399de507"] ;
472 -> 476 ;
477 [label="gini = 0.5\nsamples = 1491\nvalue = [733, 758]\nclass = e", fillcolor="#399de508"] ;
476 -> 477 ;
478 [label="gini = 0.499\nsamples = 73\nvalue = [38, 35]\nclass = T", fillcolor="#e5813914"] ;
476 -> 478 ;
479 [label="conversion <= 0.5\ngini = 0.5\nsamples = 3026\nvalue = [1557, 1469]\nclass = T", fillcolor="#e581390e"] ;
463 -> 479 ;
480 [label="browser_language <= 1.5\ngini = 0.5\nsamples = 2873\nvalue = [1469, 1404]\nclass = T", fillcolor="#e581390b"] ;
479 -> 480 ;
481 [label="country <= 2.5\ngini = 0.5\nsamples = 480\nvalue = [243, 237]\nclass = T", fillcolor="#e5813906"] ;
480 -> 481 ;
482 [label="source <= 1.5\ngini = 0.485\nsamples = 150\nvalue = [88, 62]\nclass = T", fillcolor="#e581394b"] ;
481 -> 482 ;
483 [label="gini = 0.5\nsamples = 64\nvalue = [33, 31]\nclass = T", fillcolor="#e581390f"] ;
482 -> 483 ;
484 [label="gini = 0.461\nsamples = 86\nvalue = [55, 31]\nclass = T", fillcolor="#e581396f"] ;
482 -> 484 ;
485 [label="source <= 1.5\ngini = 0.498\nsamples = 330\nvalue = [155, 175]\nclass = e", fillcolor="#399de51d"] ;
481 -> 485 ;
486 [label="country <= 3.5\ngini = 0.5\nsamples = 159\nvalue = [82, 77]\nclass = T", fillcolor="#e5813910"] ;
485 -> 486 ;
487 [label="gini = 0.498\nsamples = 34\nvalue = [18, 16]\nclass = T", fillcolor="#e581391c"] ;
486 -> 487 ;
488 [label="gini = 0.5\nsamples = 125\nvalue = [64, 61]\nclass = T", fillcolor="#e581390c"] ;
486 -> 488 ;
489 [label="country <= 3.5\ngini = 0.489\nsamples = 171\nvalue = [73, 98]\nclass = e", fillcolor="#399de541"] ;
485 -> 489 ;
490 [label="gini = 0.493\nsamples = 25\nvalue = [11, 14]\nclass = e", fillcolor="#399de537"] ;
489 -> 490 ;
491 [label="gini = 0.489\nsamples = 146\nvalue = [62, 84]\nclass = e", fillcolor="#399de543"] ;
489 -> 491 ;
492 [label="country <= 2.5\ngini = 0.5\nsamples = 2393\nvalue = [1226, 1167]\nclass = T", fillcolor="#e581390c"] ;
480 -> 492 ;
493 [label="source <= 1.5\ngini = 0.5\nsamples = 777\nvalue = [388, 389]\nclass = e", fillcolor="#399de501"] ;
492 -> 493 ;
494 [label="gini = 0.5\nsamples = 403\nvalue = [197, 206]\nclass = e", fillcolor="#399de50b"] ;
493 -> 494 ;
495 [label="gini = 0.5\nsamples = 374\nvalue = [191, 183]\nclass = T", fillcolor="#e581390b"] ;
493 -> 495 ;
496 [label="source <= 1.5\ngini = 0.499\nsamples = 1616\nvalue = [838, 778]\nclass = T", fillcolor="#e5813912"] ;
492 -> 496 ;
497 [label="country <= 3.5\ngini = 0.499\nsamples = 801\nvalue = [419, 382]\nclass = T", fillcolor="#e5813917"] ;
496 -> 497 ;
498 [label="gini = 0.5\nsamples = 126\nvalue = [62, 64]\nclass = e", fillcolor="#399de508"] ;
497 -> 498 ;
499 [label="gini = 0.498\nsamples = 675\nvalue = [357, 318]\nclass = T", fillcolor="#e581391c"] ;
497 -> 499 ;
500 [label="country <= 3.5\ngini = 0.5\nsamples = 815\nvalue = [419, 396]\nclass = T", fillcolor="#e581390e"] ;
496 -> 500 ;
501 [label="gini = 0.497\nsamples = 128\nvalue = [69, 59]\nclass = T", fillcolor="#e5813925"] ;
500 -> 501 ;
502 [label="gini = 0.5\nsamples = 687\nvalue = [350, 337]\nclass = T", fillcolor="#e5813909"] ;
500 -> 502 ;
503 [label="browser_language <= 1.5\ngini = 0.489\nsamples = 153\nvalue = [88, 65]\nclass = T", fillcolor="#e5813943"] ;
479 -> 503 ;
504 [label="source <= 1.5\ngini = 0.451\nsamples = 32\nvalue = [21, 11]\nclass = T", fillcolor="#e5813979"] ;
503 -> 504 ;
505 [label="country <= 2.5\ngini = 0.26\nsamples = 13\nvalue = [11, 2]\nclass = T", fillcolor="#e58139d1"] ;
504 -> 505 ;
506 [label="gini = 0.5\nsamples = 2\nvalue = [1, 1]\nclass = T", fillcolor="#e5813900"] ;
505 -> 506 ;
507 [label="country <= 3.5\ngini = 0.165\nsamples = 11\nvalue = [10, 1]\nclass = T", fillcolor="#e58139e6"] ;
505 -> 507 ;
508 [label="gini = 0.278\nsamples = 6\nvalue = [5, 1]\nclass = T", fillcolor="#e58139cc"] ;
507 -> 508 ;
509 [label="gini = 0.0\nsamples = 5\nvalue = [5, 0]\nclass = T", fillcolor="#e58139ff"] ;
507 -> 509 ;
510 [label="country <= 2.5\ngini = 0.499\nsamples = 19\nvalue = [10, 9]\nclass = T", fillcolor="#e5813919"] ;
504 -> 510 ;
511 [label="gini = 0.278\nsamples = 6\nvalue = [5, 1]\nclass = T", fillcolor="#e58139cc"] ;
510 -> 511 ;
512 [label="country <= 3.5\ngini = 0.473\nsamples = 13\nvalue = [5, 8]\nclass = e", fillcolor="#399de560"] ;
510 -> 512 ;
513 [label="gini = 0.444\nsamples = 3\nvalue = [1, 2]\nclass = e", fillcolor="#399de57f"] ;
512 -> 513 ;
514 [label="gini = 0.48\nsamples = 10\nvalue = [4, 6]\nclass = e", fillcolor="#399de555"] ;
512 -> 514 ;
515 [label="country <= 2.5\ngini = 0.494\nsamples = 121\nvalue = [67, 54]\nclass = T", fillcolor="#e5813931"] ;
503 -> 515 ;
516 [label="source <= 1.5\ngini = 0.5\nsamples = 37\nvalue = [18, 19]\nclass = e", fillcolor="#399de50d"] ;
515 -> 516 ;
517 [label="gini = 0.494\nsamples = 18\nvalue = [8, 10]\nclass = e", fillcolor="#399de533"] ;
516 -> 517 ;
518 [label="gini = 0.499\nsamples = 19\nvalue = [10, 9]\nclass = T", fillcolor="#e5813919"] ;
516 -> 518 ;
519 [label="country <= 3.5\ngini = 0.486\nsamples = 84\nvalue = [49, 35]\nclass = T", fillcolor="#e5813949"] ;
515 -> 519 ;
520 [label="source <= 1.5\ngini = 0.426\nsamples = 13\nvalue = [9, 4]\nclass = T", fillcolor="#e581398e"] ;
519 -> 520 ;
521 [label="gini = 0.469\nsamples = 8\nvalue = [5, 3]\nclass = T", fillcolor="#e5813966"] ;
520 -> 521 ;
522 [label="gini = 0.32\nsamples = 5\nvalue = [4, 1]\nclass = T", fillcolor="#e58139bf"] ;
520 -> 522 ;
523 [label="source <= 1.5\ngini = 0.492\nsamples = 71\nvalue = [40, 31]\nclass = T", fillcolor="#e5813939"] ;
519 -> 523 ;
524 [label="gini = 0.497\nsamples = 37\nvalue = [20, 17]\nclass = T", fillcolor="#e5813926"] ;
523 -> 524 ;
525 [label="gini = 0.484\nsamples = 34\nvalue = [20, 14]\nclass = T", fillcolor="#e581394d"] ;
523 -> 525 ;
526 [label="country <= 2.5\ngini = 0.5\nsamples = 61781\nvalue = [30728, 31053]\nclass = e", fillcolor="#399de503"] ;
430 -> 526 ;
527 [label="conversion <= 0.5\ngini = 0.5\nsamples = 44078\nvalue = [21955, 22123]\nclass = e", fillcolor="#399de502"] ;
526 -> 527 ;
528 [label="country <= 1.5\ngini = 0.5\nsamples = 41843\nvalue = [20871, 20972]\nclass = e", fillcolor="#399de501"] ;
527 -> 528 ;
529 [label="browser_language <= 0.5\ngini = 0.5\nsamples = 33579\nvalue = [16722, 16857]\nclass = e", fillcolor="#399de502"] ;
528 -> 529 ;
530 [label="source <= 1.5\ngini = 0.5\nsamples = 28010\nvalue = [13961, 14049]\nclass = e", fillcolor="#399de502"] ;
529 -> 530 ;
531 [label="gini = 0.5\nsamples = 14125\nvalue = [7045, 7080]\nclass = e", fillcolor="#399de501"] ;
530 -> 531 ;
532 [label="gini = 0.5\nsamples = 13885\nvalue = [6916, 6969]\nclass = e", fillcolor="#399de502"] ;
530 -> 532 ;
533 [label="source <= 1.5\ngini = 0.5\nsamples = 5569\nvalue = [2761, 2808]\nclass = e", fillcolor="#399de504"] ;
529 -> 533 ;
534 [label="browser_language <= 1.5\ngini = 0.5\nsamples = 2788\nvalue = [1394, 1394]\nclass = T", fillcolor="#e5813900"] ;
533 -> 534 ;
535 [label="gini = 0.5\nsamples = 438\nvalue = [214, 224]\nclass = e", fillcolor="#399de50b"] ;
534 -> 535 ;
536 [label="gini = 0.5\nsamples = 2350\nvalue = [1180, 1170]\nclass = T", fillcolor="#e5813902"] ;
534 -> 536 ;
537 [label="browser_language <= 1.5\ngini = 0.5\nsamples = 2781\nvalue = [1367, 1414]\nclass = e", fillcolor="#399de508"] ;
533 -> 537 ;
538 [label="gini = 0.5\nsamples = 470\nvalue = [236, 234]\nclass = T", fillcolor="#e5813902"] ;
537 -> 538 ;
539 [label="gini = 0.5\nsamples = 2311\nvalue = [1131, 1180]\nclass = e", fillcolor="#399de50b"] ;
537 -> 539 ;
540 [label="source <= 1.5\ngini = 0.5\nsamples = 8264\nvalue = [4149, 4115]\nclass = T", fillcolor="#e5813902"] ;
528 -> 540 ;
541 [label="browser_language <= 0.5\ngini = 0.5\nsamples = 4170\nvalue = [2106, 2064]\nclass = T", fillcolor="#e5813905"] ;
540 -> 541 ;
542 [label="gini = 0.5\nsamples = 3460\nvalue = [1740, 1720]\nclass = T", fillcolor="#e5813903"] ;
541 -> 542 ;
543 [label="browser_language <= 1.5\ngini = 0.5\nsamples = 710\nvalue = [366, 344]\nclass = T", fillcolor="#e581390f"] ;
541 -> 543 ;
544 [label="gini = 0.498\nsamples = 123\nvalue = [65, 58]\nclass = T", fillcolor="#e581391b"] ;
543 -> 544 ;
545 [label="gini = 0.5\nsamples = 587\nvalue = [301, 286]\nclass = T", fillcolor="#e581390d"] ;
543 -> 545 ;
546 [label="browser_language <= 1.5\ngini = 0.5\nsamples = 4094\nvalue = [2043, 2051]\nclass = e", fillcolor="#399de501"] ;
540 -> 546 ;
547 [label="browser_language <= 0.5\ngini = 0.5\nsamples = 3544\nvalue = [1773, 1771]\nclass = T", fillcolor="#e5813900"] ;
546 -> 547 ;
548 [label="gini = 0.5\nsamples = 3436\nvalue = [1718, 1718]\nclass = T", fillcolor="#e5813900"] ;
547 -> 548 ;
549 [label="gini = 0.5\nsamples = 108\nvalue = [55, 53]\nclass = T", fillcolor="#e5813909"] ;
547 -> 549 ;
550 [label="gini = 0.5\nsamples = 550\nvalue = [270, 280]\nclass = e", fillcolor="#399de509"] ;
546 -> 550 ;
551 [label="browser_language <= 0.5\ngini = 0.5\nsamples = 2235\nvalue = [1084, 1151]\nclass = e", fillcolor="#399de50f"] ;
527 -> 551 ;
552 [label="country <= 1.5\ngini = 0.5\nsamples = 1880\nvalue = [927, 953]\nclass = e", fillcolor="#399de507"] ;
551 -> 552 ;
553 [label="source <= 1.5\ngini = 0.5\nsamples = 1520\nvalue = [742, 778]\nclass = e", fillcolor="#399de50c"] ;
552 -> 553 ;
554 [label="gini = 0.5\nsamples = 775\nvalue = [376, 399]\nclass = e", fillcolor="#399de50f"] ;
553 -> 554 ;
555 [label="gini = 0.5\nsamples = 745\nvalue = [366, 379]\nclass = e", fillcolor="#399de509"] ;
553 -> 555 ;
556 [label="source <= 1.5\ngini = 0.5\nsamples = 360\nvalue = [185, 175]\nclass = T", fillcolor="#e581390e"] ;
552 -> 556 ;
557 [label="gini = 0.497\nsamples = 172\nvalue = [93, 79]\nclass = T", fillcolor="#e5813926"] ;
556 -> 557 ;
558 [label="gini = 0.5\nsamples = 188\nvalue = [92, 96]\nclass = e", fillcolor="#399de50b"] ;
556 -> 558 ;
559 [label="browser_language <= 1.5\ngini = 0.493\nsamples = 355\nvalue = [157, 198]\nclass = e", fillcolor="#399de535"] ;
551 -> 559 ;
560 [label="source <= 1.5\ngini = 0.444\nsamples = 57\nvalue = [19, 38]\nclass = e", fillcolor="#399de57f"] ;
559 -> 560 ;
561 [label="country <= 1.5\ngini = 0.477\nsamples = 28\nvalue = [11, 17]\nclass = e", fillcolor="#399de55a"] ;
560 -> 561 ;
562 [label="gini = 0.48\nsamples = 25\nvalue = [10, 15]\nclass = e", fillcolor="#399de555"] ;
561 -> 562 ;
563 [label="gini = 0.444\nsamples = 3\nvalue = [1, 2]\nclass = e", fillcolor="#399de57f"] ;
561 -> 563 ;
564 [label="country <= 1.5\ngini = 0.4\nsamples = 29\nvalue = [8, 21]\nclass = e", fillcolor="#399de59e"] ;
560 -> 564 ;
565 [label="gini = 0.423\nsamples = 23\nvalue = [7, 16]\nclass = e", fillcolor="#399de58f"] ;
564 -> 565 ;
566 [label="gini = 0.278\nsamples = 6\nvalue = [1, 5]\nclass = e", fillcolor="#399de5cc"] ;
564 -> 566 ;
567 [label="source <= 1.5\ngini = 0.497\nsamples = 298\nvalue = [138, 160]\nclass = e", fillcolor="#399de523"] ;
559 -> 567 ;
568 [label="country <= 1.5\ngini = 0.494\nsamples = 143\nvalue = [64, 79]\nclass = e", fillcolor="#399de530"] ;
567 -> 568 ;
569 [label="gini = 0.494\nsamples = 110\nvalue = [49, 61]\nclass = e", fillcolor="#399de532"] ;
568 -> 569 ;
570 [label="gini = 0.496\nsamples = 33\nvalue = [15, 18]\nclass = e", fillcolor="#399de52a"] ;
568 -> 570 ;
571 [label="country <= 1.5\ngini = 0.499\nsamples = 155\nvalue = [74, 81]\nclass = e", fillcolor="#399de516"] ;
567 -> 571 ;
572 [label="gini = 0.499\nsamples = 124\nvalue = [59, 65]\nclass = e", fillcolor="#399de518"] ;
571 -> 572 ;
573 [label="gini = 0.499\nsamples = 31\nvalue = [15, 16]\nclass = e", fillcolor="#399de510"] ;
571 -> 573 ;
574 [label="conversion <= 0.5\ngini = 0.5\nsamples = 17703\nvalue = [8773, 8930]\nclass = e", fillcolor="#399de504"] ;
526 -> 574 ;
575 [label="source <= 1.5\ngini = 0.5\nsamples = 16838\nvalue = [8327, 8511]\nclass = e", fillcolor="#399de506"] ;
574 -> 575 ;
576 [label="browser_language <= 0.5\ngini = 0.5\nsamples = 8495\nvalue = [4165, 4330]\nclass = e", fillcolor="#399de50a"] ;
575 -> 576 ;
577 [label="country <= 3.5\ngini = 0.5\nsamples = 7014\nvalue = [3450, 3564]\nclass = e", fillcolor="#399de508"] ;
576 -> 577 ;
578 [label="gini = 0.5\nsamples = 1194\nvalue = [587, 607]\nclass = e", fillcolor="#399de508"] ;
577 -> 578 ;
579 [label="gini = 0.5\nsamples = 5820\nvalue = [2863, 2957]\nclass = e", fillcolor="#399de508"] ;
577 -> 579 ;
580 [label="browser_language <= 1.5\ngini = 0.499\nsamples = 1481\nvalue = [715, 766]\nclass = e", fillcolor="#399de511"] ;
576 -> 580 ;
581 [label="country <= 3.5\ngini = 0.495\nsamples = 252\nvalue = [114, 138]\nclass = e", fillcolor="#399de52c"] ;
580 -> 581 ;
582 [label="gini = 0.495\nsamples = 42\nvalue = [23, 19]\nclass = T", fillcolor="#e581392c"] ;
581 -> 582 ;
583 [label="gini = 0.491\nsamples = 210\nvalue = [91, 119]\nclass = e", fillcolor="#399de53c"] ;
581 -> 583 ;
584 [label="country <= 3.5\ngini = 0.5\nsamples = 1229\nvalue = [601, 628]\nclass = e", fillcolor="#399de50b"] ;
580 -> 584 ;
585 [label="gini = 0.499\nsamples = 208\nvalue = [100, 108]\nclass = e", fillcolor="#399de513"] ;
584 -> 585 ;
586 [label="gini = 0.5\nsamples = 1021\nvalue = [501, 520]\nclass = e", fillcolor="#399de509"] ;
584 -> 586 ;
587 [label="country <= 3.5\ngini = 0.5\nsamples = 8343\nvalue = [4162, 4181]\nclass = e", fillcolor="#399de501"] ;
575 -> 587 ;
588 [label="browser_language <= 1.5\ngini = 0.5\nsamples = 1433\nvalue = [694, 739]\nclass = e", fillcolor="#399de510"] ;
587 -> 588 ;
589 [label="browser_language <= 0.5\ngini = 0.499\nsamples = 1230\nvalue = [586, 644]\nclass = e", fillcolor="#399de517"] ;
588 -> 589 ;
590 [label="gini = 0.499\nsamples = 1187\nvalue = [565, 622]\nclass = e", fillcolor="#399de517"] ;
589 -> 590 ;
591 [label="gini = 0.5\nsamples = 43\nvalue = [21, 22]\nclass = e", fillcolor="#399de50c"] ;
589 -> 591 ;
592 [label="gini = 0.498\nsamples = 203\nvalue = [108, 95]\nclass = T", fillcolor="#e581391f"] ;
588 -> 592 ;
593 [label="browser_language <= 0.5\ngini = 0.5\nsamples = 6910\nvalue = [3468, 3442]\nclass = T", fillcolor="#e5813902"] ;
587 -> 593 ;
594 [label="gini = 0.5\nsamples = 5764\nvalue = [2885, 2879]\nclass = T", fillcolor="#e5813901"] ;
593 -> 594 ;
595 [label="browser_language <= 1.5\ngini = 0.5\nsamples = 1146\nvalue = [583, 563]\nclass = T", fillcolor="#e5813909"] ;
593 -> 595 ;
596 [label="gini = 0.5\nsamples = 193\nvalue = [98, 95]\nclass = T", fillcolor="#e5813908"] ;
595 -> 596 ;
597 [label="gini = 0.5\nsamples = 953\nvalue = [485, 468]\nclass = T", fillcolor="#e5813909"] ;
595 -> 597 ;
598 [label="browser_language <= 1.5\ngini = 0.5\nsamples = 865\nvalue = [446, 419]\nclass = T", fillcolor="#e581390f"] ;
574 -> 598 ;
599 [label="country <= 3.5\ngini = 0.499\nsamples = 752\nvalue = [393, 359]\nclass = T", fillcolor="#e5813916"] ;
598 -> 599 ;
600 [label="source <= 1.5\ngini = 0.496\nsamples = 116\nvalue = [63, 53]\nclass = T", fillcolor="#e5813928"] ;
599 -> 600 ;
601 [label="browser_language <= 0.5\ngini = 0.444\nsamples = 54\nvalue = [36, 18]\nclass = T", fillcolor="#e581397f"] ;
600 -> 601 ;
602 [label="gini = 0.449\nsamples = 53\nvalue = [35, 18]\nclass = T", fillcolor="#e581397c"] ;
601 -> 602 ;
603 [label="gini = 0.0\nsamples = 1\nvalue = [1, 0]\nclass = T", fillcolor="#e58139ff"] ;
601 -> 603 ;
604 [label="browser_language <= 0.5\ngini = 0.492\nsamples = 62\nvalue = [27, 35]\nclass = e", fillcolor="#399de53a"] ;
600 -> 604 ;
605 [label="gini = 0.488\nsamples = 59\nvalue = [25, 34]\nclass = e", fillcolor="#399de544"] ;
604 -> 605 ;
606 [label="gini = 0.444\nsamples = 3\nvalue = [2, 1]\nclass = T", fillcolor="#e581397f"] ;
604 -> 606 ;
607 [label="source <= 1.5\ngini = 0.499\nsamples = 636\nvalue = [330, 306]\nclass = T", fillcolor="#e5813913"] ;
599 -> 607 ;
608 [label="browser_language <= 0.5\ngini = 0.5\nsamples = 343\nvalue = [174, 169]\nclass = T", fillcolor="#e5813907"] ;
607 -> 608 ;
609 [label="gini = 0.5\nsamples = 333\nvalue = [168, 165]\nclass = T", fillcolor="#e5813905"] ;
608 -> 609 ;
610 [label="gini = 0.48\nsamples = 10\nvalue = [6, 4]\nclass = T", fillcolor="#e5813955"] ;
608 -> 610 ;
611 [label="browser_language <= 0.5\ngini = 0.498\nsamples = 293\nvalue = [156, 137]\nclass = T", fillcolor="#e581391f"] ;
607 -> 611 ;
612 [label="gini = 0.497\nsamples = 285\nvalue = [153, 132]\nclass = T", fillcolor="#e5813923"] ;
611 -> 612 ;
613 [label="gini = 0.469\nsamples = 8\nvalue = [3, 5]\nclass = e", fillcolor="#399de566"] ;
611 -> 613 ;
614 [label="source <= 1.5\ngini = 0.498\nsamples = 113\nvalue = [53, 60]\nclass = e", fillcolor="#399de51e"] ;
598 -> 614 ;
615 [label="country <= 3.5\ngini = 0.492\nsamples = 57\nvalue = [25, 32]\nclass = e", fillcolor="#399de538"] ;
614 -> 615 ;
616 [label="gini = 0.469\nsamples = 8\nvalue = [3, 5]\nclass = e", fillcolor="#399de566"] ;
615 -> 616 ;
617 [label="gini = 0.495\nsamples = 49\nvalue = [22, 27]\nclass = e", fillcolor="#399de52f"] ;
615 -> 617 ;
618 [label="country <= 3.5\ngini = 0.5\nsamples = 56\nvalue = [28, 28]\nclass = T", fillcolor="#e5813900"] ;
614 -> 618 ;
619 [label="gini = 0.5\nsamples = 6\nvalue = [3, 3]\nclass = T", fillcolor="#e5813900"] ;
618 -> 619 ;
620 [label="gini = 0.5\nsamples = 50\nvalue = [25, 25]\nclass = T", fillcolor="#e5813900"] ;
618 -> 620 ;
621 [label="browser_language <= 0.5\ngini = 0.5\nsamples = 34811\nvalue = [17458, 17353]\nclass = T", fillcolor="#e5813902"] ;
429 -> 621 ;
622 [label="country <= 3.5\ngini = 0.5\nsamples = 28951\nvalue = [14620, 14331]\nclass = T", fillcolor="#e5813905"] ;
621 -> 622 ;
623 [label="conversion <= 0.5\ngini = 0.5\nsamples = 22102\nvalue = [11082, 11020]\nclass = T", fillcolor="#e5813901"] ;
622 -> 623 ;
624 [label="country <= 1.5\ngini = 0.5\nsamples = 20996\nvalue = [10516, 10480]\nclass = T", fillcolor="#e5813901"] ;
623 -> 624 ;
625 [label="browser <= 3.5\ngini = 0.5\nsamples = 15580\nvalue = [7823, 7757]\nclass = T", fillcolor="#e5813902"] ;
624 -> 625 ;
626 [label="source <= 1.5\ngini = 0.5\nsamples = 7219\nvalue = [3602, 3617]\nclass = e", fillcolor="#399de501"] ;
625 -> 626 ;
627 [label="gini = 0.5\nsamples = 3650\nvalue = [1801, 1849]\nclass = e", fillcolor="#399de507"] ;
626 -> 627 ;
628 [label="gini = 0.5\nsamples = 3569\nvalue = [1801, 1768]\nclass = T", fillcolor="#e5813905"] ;
626 -> 628 ;
629 [label="source <= 1.5\ngini = 0.5\nsamples = 8361\nvalue = [4221, 4140]\nclass = T", fillcolor="#e5813905"] ;
625 -> 629 ;
630 [label="gini = 0.5\nsamples = 4211\nvalue = [2138, 2073]\nclass = T", fillcolor="#e5813908"] ;
629 -> 630 ;
631 [label="gini = 0.5\nsamples = 4150\nvalue = [2083, 2067]\nclass = T", fillcolor="#e5813902"] ;
629 -> 631 ;
632 [label="browser <= 3.5\ngini = 0.5\nsamples = 5416\nvalue = [2693, 2723]\nclass = e", fillcolor="#399de503"] ;
624 -> 632 ;
633 [label="country <= 2.5\ngini = 0.5\nsamples = 2502\nvalue = [1261, 1241]\nclass = T", fillcolor="#e5813904"] ;
632 -> 633 ;
634 [label="source <= 1.5\ngini = 0.5\nsamples = 1866\nvalue = [950, 916]\nclass = T", fillcolor="#e5813909"] ;
633 -> 634 ;
635 [label="gini = 0.5\nsamples = 939\nvalue = [469, 470]\nclass = e", fillcolor="#399de501"] ;
634 -> 635 ;
636 [label="gini = 0.499\nsamples = 927\nvalue = [481, 446]\nclass = T", fillcolor="#e5813913"] ;
634 -> 636 ;
637 [label="source <= 1.5\ngini = 0.5\nsamples = 636\nvalue = [311, 325]\nclass = e", fillcolor="#399de50b"] ;
633 -> 637 ;
638 [label="gini = 0.5\nsamples = 333\nvalue = [166, 167]\nclass = e", fillcolor="#399de502"] ;
637 -> 638 ;
639 [label="gini = 0.499\nsamples = 303\nvalue = [145, 158]\nclass = e", fillcolor="#399de515"] ;
637 -> 639 ;
640 [label="source <= 1.5\ngini = 0.5\nsamples = 2914\nvalue = [1432, 1482]\nclass = e", fillcolor="#399de509"] ;
632 -> 640 ;
641 [label="country <= 2.5\ngini = 0.5\nsamples = 1470\nvalue = [737, 733]\nclass = T", fillcolor="#e5813901"] ;
640 -> 641 ;
642 [label="gini = 0.499\nsamples = 1095\nvalue = [530, 565]\nclass = e", fillcolor="#399de510"] ;
641 -> 642 ;
643 [label="gini = 0.495\nsamples = 375\nvalue = [207, 168]\nclass = T", fillcolor="#e5813930"] ;
641 -> 643 ;
644 [label="country <= 2.5\ngini = 0.499\nsamples = 1444\nvalue = [695, 749]\nclass = e", fillcolor="#399de512"] ;
640 -> 644 ;
645 [label="gini = 0.5\nsamples = 1066\nvalue = [523, 543]\nclass = e", fillcolor="#399de509"] ;
644 -> 645 ;
646 [label="gini = 0.496\nsamples = 378\nvalue = [172, 206]\nclass = e", fillcolor="#399de52a"] ;
644 -> 646 ;
647 [label="device <= 0.5\ngini = 0.5\nsamples = 1106\nvalue = [566, 540]\nclass = T", fillcolor="#e581390c"] ;
623 -> 647 ;
648 [label="country <= 2.5\ngini = 0.496\nsamples = 513\nvalue = [280, 233]\nclass = T", fillcolor="#e581392b"] ;
647 -> 648 ;
649 [label="source <= 1.5\ngini = 0.495\nsamples = 480\nvalue = [265, 215]\nclass = T", fillcolor="#e5813930"] ;
648 -> 649 ;
650 [label="country <= 1.5\ngini = 0.498\nsamples = 255\nvalue = [135, 120]\nclass = T", fillcolor="#e581391c"] ;
649 -> 650 ;
651 [label="gini = 0.495\nsamples = 205\nvalue = [113, 92]\nclass = T", fillcolor="#e581392f"] ;
650 -> 651 ;
652 [label="gini = 0.493\nsamples = 50\nvalue = [22, 28]\nclass = e", fillcolor="#399de537"] ;
650 -> 652 ;
653 [label="country <= 1.5\ngini = 0.488\nsamples = 225\nvalue = [130, 95]\nclass = T", fillcolor="#e5813945"] ;
649 -> 653 ;
654 [label="gini = 0.491\nsamples = 171\nvalue = [97, 74]\nclass = T", fillcolor="#e581393c"] ;
653 -> 654 ;
655 [label="gini = 0.475\nsamples = 54\nvalue = [33, 21]\nclass = T", fillcolor="#e581395d"] ;
653 -> 655 ;
656 [label="source <= 1.5\ngini = 0.496\nsamples = 33\nvalue = [15, 18]\nclass = e", fillcolor="#399de52a"] ;
648 -> 656 ;
657 [label="gini = 0.498\nsamples = 15\nvalue = [7, 8]\nclass = e", fillcolor="#399de520"] ;
656 -> 657 ;
658 [label="gini = 0.494\nsamples = 18\nvalue = [8, 10]\nclass = e", fillcolor="#399de533"] ;
656 -> 658 ;
659 [label="country <= 1.5\ngini = 0.499\nsamples = 593\nvalue = [286, 307]\nclass = e", fillcolor="#399de511"] ;
647 -> 659 ;
660 [label="source <= 1.5\ngini = 0.498\nsamples = 450\nvalue = [212, 238]\nclass = e", fillcolor="#399de51c"] ;
659 -> 660 ;
661 [label="gini = 0.496\nsamples = 220\nvalue = [100, 120]\nclass = e", fillcolor="#399de52a"] ;
660 -> 661 ;
662 [label="gini = 0.5\nsamples = 230\nvalue = [112, 118]\nclass = e", fillcolor="#399de50d"] ;
660 -> 662 ;
663 [label="source <= 1.5\ngini = 0.499\nsamples = 143\nvalue = [74, 69]\nclass = T", fillcolor="#e5813911"] ;
659 -> 663 ;
664 [label="country <= 2.5\ngini = 0.5\nsamples = 79\nvalue = [39, 40]\nclass = e", fillcolor="#399de506"] ;
663 -> 664 ;
665 [label="gini = 0.5\nsamples = 62\nvalue = [31, 31]\nclass = T", fillcolor="#e5813900"] ;
664 -> 665 ;
666 [label="gini = 0.498\nsamples = 17\nvalue = [8, 9]\nclass = e", fillcolor="#399de51c"] ;
664 -> 666 ;
667 [label="country <= 2.5\ngini = 0.496\nsamples = 64\nvalue = [35, 29]\nclass = T", fillcolor="#e581392c"] ;
663 -> 667 ;
668 [label="gini = 0.491\nsamples = 44\nvalue = [25, 19]\nclass = T", fillcolor="#e581393d"] ;
667 -> 668 ;
669 [label="gini = 0.5\nsamples = 20\nvalue = [10, 10]\nclass = T", fillcolor="#e5813900"] ;
667 -> 669 ;
670 [label="source <= 1.5\ngini = 0.499\nsamples = 6849\nvalue = [3538, 3311]\nclass = T", fillcolor="#e5813910"] ;
622 -> 670 ;
671 [label="conversion <= 0.5\ngini = 0.498\nsamples = 3398\nvalue = [1802, 1596]\nclass = T", fillcolor="#e581391d"] ;
670 -> 671 ;
672 [label="device <= 0.5\ngini = 0.498\nsamples = 3208\nvalue = [1694, 1514]\nclass = T", fillcolor="#e581391b"] ;
671 -> 672 ;
673 [label="gini = 0.499\nsamples = 1509\nvalue = [793, 716]\nclass = T", fillcolor="#e5813919"] ;
672 -> 673 ;
674 [label="gini = 0.498\nsamples = 1699\nvalue = [901, 798]\nclass = T", fillcolor="#e581391d"] ;
672 -> 674 ;
675 [label="device <= 0.5\ngini = 0.491\nsamples = 190\nvalue = [108, 82]\nclass = T", fillcolor="#e581393d"] ;
671 -> 675 ;
676 [label="gini = 0.497\nsamples = 82\nvalue = [44, 38]\nclass = T", fillcolor="#e5813923"] ;
675 -> 676 ;
677 [label="gini = 0.483\nsamples = 108\nvalue = [64, 44]\nclass = T", fillcolor="#e5813950"] ;
675 -> 677 ;
678 [label="device <= 0.5\ngini = 0.5\nsamples = 3451\nvalue = [1736, 1715]\nclass = T", fillcolor="#e5813903"] ;
670 -> 678 ;
679 [label="conversion <= 0.5\ngini = 0.5\nsamples = 1603\nvalue = [823, 780]\nclass = T", fillcolor="#e581390d"] ;
678 -> 679 ;
680 [label="gini = 0.5\nsamples = 1513\nvalue = [777, 736]\nclass = T", fillcolor="#e581390d"] ;
679 -> 680 ;
681 [label="gini = 0.5\nsamples = 90\nvalue = [46, 44]\nclass = T", fillcolor="#e581390b"] ;
679 -> 681 ;
682 [label="conversion <= 0.5\ngini = 0.5\nsamples = 1848\nvalue = [913, 935]\nclass = e", fillcolor="#399de506"] ;
678 -> 682 ;
683 [label="gini = 0.5\nsamples = 1750\nvalue = [864, 886]\nclass = e", fillcolor="#399de506"] ;
682 -> 683 ;
684 [label="gini = 0.5\nsamples = 98\nvalue = [49, 49]\nclass = T", fillcolor="#e5813900"] ;
682 -> 684 ;
685 [label="browser <= 3.5\ngini = 0.5\nsamples = 5860\nvalue = [2838, 3022]\nclass = e", fillcolor="#399de510"] ;
621 -> 685 ;
686 [label="browser_language <= 1.5\ngini = 0.498\nsamples = 2754\nvalue = [1298, 1456]\nclass = e", fillcolor="#399de51c"] ;
685 -> 686 ;
687 [label="country <= 1.5\ngini = 0.496\nsamples = 444\nvalue = [201, 243]\nclass = e", fillcolor="#399de52c"] ;
686 -> 687 ;
688 [label="source <= 1.5\ngini = 0.499\nsamples = 258\nvalue = [122, 136]\nclass = e", fillcolor="#399de51a"] ;
687 -> 688 ;
689 [label="conversion <= 0.5\ngini = 0.499\nsamples = 124\nvalue = [59, 65]\nclass = e", fillcolor="#399de518"] ;
688 -> 689 ;
690 [label="gini = 0.499\nsamples = 121\nvalue = [58, 63]\nclass = e", fillcolor="#399de514"] ;
689 -> 690 ;
691 [label="gini = 0.444\nsamples = 3\nvalue = [1, 2]\nclass = e", fillcolor="#399de57f"] ;
689 -> 691 ;
692 [label="conversion <= 0.5\ngini = 0.498\nsamples = 134\nvalue = [63, 71]\nclass = e", fillcolor="#399de51d"] ;
688 -> 692 ;
693 [label="gini = 0.498\nsamples = 124\nvalue = [58, 66]\nclass = e", fillcolor="#399de51f"] ;
692 -> 693 ;
694 [label="gini = 0.5\nsamples = 10\nvalue = [5, 5]\nclass = T", fillcolor="#e5813900"] ;
692 -> 694 ;
695 [label="country <= 2.5\ngini = 0.489\nsamples = 186\nvalue = [79, 107]\nclass = e", fillcolor="#399de543"] ;
687 -> 695 ;
696 [label="conversion <= 0.5\ngini = 0.473\nsamples = 65\nvalue = [25, 40]\nclass = e", fillcolor="#399de560"] ;
695 -> 696 ;
697 [label="source <= 1.5\ngini = 0.476\nsamples = 64\nvalue = [25, 39]\nclass = e", fillcolor="#399de55c"] ;
696 -> 697 ;
698 [label="gini = 0.463\nsamples = 33\nvalue = [12, 21]\nclass = e", fillcolor="#399de56d"] ;
697 -> 698 ;
699 [label="gini = 0.487\nsamples = 31\nvalue = [13, 18]\nclass = e", fillcolor="#399de547"] ;
697 -> 699 ;
700 [label="gini = 0.0\nsamples = 1\nvalue = [0, 1]\nclass = e", fillcolor="#399de5ff"] ;
696 -> 700 ;
701 [label="country <= 3.5\ngini = 0.494\nsamples = 121\nvalue = [54, 67]\nclass = e", fillcolor="#399de531"] ;
695 -> 701 ;
702 [label="conversion <= 0.5\ngini = 0.5\nsamples = 20\nvalue = [10, 10]\nclass = T", fillcolor="#e5813900"] ;
701 -> 702 ;
703 [label="source <= 1.5\ngini = 0.499\nsamples = 19\nvalue = [9, 10]\nclass = e", fillcolor="#399de519"] ;
702 -> 703 ;
704 [label="gini = 0.469\nsamples = 8\nvalue = [3, 5]\nclass = e", fillcolor="#399de566"] ;
703 -> 704 ;
705 [label="gini = 0.496\nsamples = 11\nvalue = [6, 5]\nclass = T", fillcolor="#e581392a"] ;
703 -> 705 ;
706 [label="gini = 0.0\nsamples = 1\nvalue = [1, 0]\nclass = T", fillcolor="#e58139ff"] ;
702 -> 706 ;
707 [label="source <= 1.5\ngini = 0.492\nsamples = 101\nvalue = [44, 57]\nclass = e", fillcolor="#399de53a"] ;
701 -> 707 ;
708 [label="conversion <= 0.5\ngini = 0.499\nsamples = 59\nvalue = [28, 31]\nclass = e", fillcolor="#399de519"] ;
707 -> 708 ;
709 [label="gini = 0.499\nsamples = 57\nvalue = [27, 30]\nclass = e", fillcolor="#399de519"] ;
708 -> 709 ;
710 [label="gini = 0.5\nsamples = 2\nvalue = [1, 1]\nclass = T", fillcolor="#e5813900"] ;
708 -> 710 ;
711 [label="conversion <= 0.5\ngini = 0.472\nsamples = 42\nvalue = [16, 26]\nclass = e", fillcolor="#399de562"] ;
707 -> 711 ;
712 [label="gini = 0.47\nsamples = 37\nvalue = [14, 23]\nclass = e", fillcolor="#399de564"] ;
711 -> 712 ;
713 [label="gini = 0.48\nsamples = 5\nvalue = [2, 3]\nclass = e", fillcolor="#399de555"] ;
711 -> 713 ;
714 [label="conversion <= 0.5\ngini = 0.499\nsamples = 2310\nvalue = [1097, 1213]\nclass = e", fillcolor="#399de518"] ;
686 -> 714 ;
715 [label="source <= 1.5\ngini = 0.499\nsamples = 2184\nvalue = [1039, 1145]\nclass = e", fillcolor="#399de518"] ;
714 -> 715 ;
716 [label="country <= 2.5\ngini = 0.499\nsamples = 1115\nvalue = [534, 581]\nclass = e", fillcolor="#399de515"] ;
715 -> 716 ;
717 [label="country <= 1.5\ngini = 0.497\nsamples = 788\nvalue = [364, 424]\nclass = e", fillcolor="#399de524"] ;
716 -> 717 ;
718 [label="gini = 0.498\nsamples = 620\nvalue = [289, 331]\nclass = e", fillcolor="#399de520"] ;
717 -> 718 ;
719 [label="gini = 0.494\nsamples = 168\nvalue = [75, 93]\nclass = e", fillcolor="#399de531"] ;
717 -> 719 ;
720 [label="country <= 3.5\ngini = 0.499\nsamples = 327\nvalue = [170, 157]\nclass = T", fillcolor="#e5813913"] ;
716 -> 720 ;
721 [label="gini = 0.5\nsamples = 59\nvalue = [30, 29]\nclass = T", fillcolor="#e5813908"] ;
720 -> 721 ;
722 [label="gini = 0.499\nsamples = 268\nvalue = [140, 128]\nclass = T", fillcolor="#e5813916"] ;
720 -> 722 ;
723 [label="country <= 2.5\ngini = 0.498\nsamples = 1069\nvalue = [505, 564]\nclass = e", fillcolor="#399de51b"] ;
715 -> 723 ;
724 [label="country <= 1.5\ngini = 0.5\nsamples = 760\nvalue = [372, 388]\nclass = e", fillcolor="#399de50b"] ;
723 -> 724 ;
725 [label="gini = 0.499\nsamples = 591\nvalue = [285, 306]\nclass = e", fillcolor="#399de511"] ;
724 -> 725 ;
726 [label="gini = 0.5\nsamples = 169\nvalue = [87, 82]\nclass = T", fillcolor="#e581390f"] ;
724 -> 726 ;
727 [label="country <= 3.5\ngini = 0.49\nsamples = 309\nvalue = [133, 176]\nclass = e", fillcolor="#399de53e"] ;
723 -> 727 ;
728 [label="gini = 0.488\nsamples = 52\nvalue = [22, 30]\nclass = e", fillcolor="#399de544"] ;
727 -> 728 ;
729 [label="gini = 0.491\nsamples = 257\nvalue = [111, 146]\nclass = e", fillcolor="#399de53d"] ;
727 -> 729 ;
730 [label="country <= 1.5\ngini = 0.497\nsamples = 126\nvalue = [58, 68]\nclass = e", fillcolor="#399de525"] ;
714 -> 730 ;
731 [label="source <= 1.5\ngini = 0.5\nsamples = 75\nvalue = [38, 37]\nclass = T", fillcolor="#e5813907"] ;
730 -> 731 ;
732 [label="gini = 0.499\nsamples = 42\nvalue = [22, 20]\nclass = T", fillcolor="#e5813917"] ;
731 -> 732 ;
733 [label="gini = 0.5\nsamples = 33\nvalue = [16, 17]\nclass = e", fillcolor="#399de50f"] ;
731 -> 733 ;
734 [label="country <= 3.5\ngini = 0.477\nsamples = 51\nvalue = [20, 31]\nclass = e", fillcolor="#399de55a"] ;
730 -> 734 ;
735 [label="source <= 1.5\ngini = 0.397\nsamples = 22\nvalue = [6, 16]\nclass = e", fillcolor="#399de59f"] ;
734 -> 735 ;
736 [label="country <= 2.5\ngini = 0.32\nsamples = 15\nvalue = [3, 12]\nclass = e", fillcolor="#399de5bf"] ;
735 -> 736 ;
737 [label="gini = 0.337\nsamples = 14\nvalue = [3, 11]\nclass = e", fillcolor="#399de5b9"] ;
736 -> 737 ;
738 [label="gini = 0.0\nsamples = 1\nvalue = [0, 1]\nclass = e", fillcolor="#399de5ff"] ;
736 -> 738 ;
739 [label="country <= 2.5\ngini = 0.49\nsamples = 7\nvalue = [3, 4]\nclass = e", fillcolor="#399de540"] ;
735 -> 739 ;
740 [label="gini = 0.5\nsamples = 4\nvalue = [2, 2]\nclass = T", fillcolor="#e5813900"] ;
739 -> 740 ;
741 [label="gini = 0.444\nsamples = 3\nvalue = [1, 2]\nclass = e", fillcolor="#399de57f"] ;
739 -> 741 ;
742 [label="source <= 1.5\ngini = 0.499\nsamples = 29\nvalue = [14, 15]\nclass = e", fillcolor="#399de511"] ;
734 -> 742 ;
743 [label="gini = 0.486\nsamples = 12\nvalue = [5, 7]\nclass = e", fillcolor="#399de549"] ;
742 -> 743 ;
744 [label="gini = 0.498\nsamples = 17\nvalue = [9, 8]\nclass = T", fillcolor="#e581391c"] ;
742 -> 744 ;
745 [label="source <= 1.5\ngini = 0.5\nsamples = 3106\nvalue = [1540, 1566]\nclass = e", fillcolor="#399de504"] ;
685 -> 745 ;
746 [label="conversion <= 0.5\ngini = 0.499\nsamples = 1563\nvalue = [742, 821]\nclass = e", fillcolor="#399de519"] ;
745 -> 746 ;
747 [label="browser_language <= 1.5\ngini = 0.499\nsamples = 1480\nvalue = [709, 771]\nclass = e", fillcolor="#399de515"] ;
746 -> 747 ;
748 [label="country <= 3.5\ngini = 0.498\nsamples = 253\nvalue = [134, 119]\nclass = T", fillcolor="#e581391d"] ;
747 -> 748 ;
749 [label="country <= 1.5\ngini = 0.494\nsamples = 196\nvalue = [109, 87]\nclass = T", fillcolor="#e5813933"] ;
748 -> 749 ;
750 [label="gini = 0.492\nsamples = 147\nvalue = [83, 64]\nclass = T", fillcolor="#e581393a"] ;
749 -> 750 ;
751 [label="country <= 2.5\ngini = 0.498\nsamples = 49\nvalue = [26, 23]\nclass = T", fillcolor="#e581391d"] ;
749 -> 751 ;
752 [label="gini = 0.499\nsamples = 40\nvalue = [21, 19]\nclass = T", fillcolor="#e5813918"] ;
751 -> 752 ;
753 [label="gini = 0.494\nsamples = 9\nvalue = [5, 4]\nclass = T", fillcolor="#e5813933"] ;
751 -> 753 ;
754 [label="gini = 0.492\nsamples = 57\nvalue = [25, 32]\nclass = e", fillcolor="#399de538"] ;
748 -> 754 ;
755 [label="country <= 1.5\ngini = 0.498\nsamples = 1227\nvalue = [575, 652]\nclass = e", fillcolor="#399de51e"] ;
747 -> 755 ;
756 [label="gini = 0.495\nsamples = 699\nvalue = [315, 384]\nclass = e", fillcolor="#399de52e"] ;
755 -> 756 ;
757 [label="country <= 3.5\ngini = 0.5\nsamples = 528\nvalue = [260, 268]\nclass = e", fillcolor="#399de508"] ;
755 -> 757 ;
758 [label="country <= 2.5\ngini = 0.499\nsamples = 209\nvalue = [108, 101]\nclass = T", fillcolor="#e5813911"] ;
757 -> 758 ;
759 [label="gini = 0.5\nsamples = 151\nvalue = [76, 75]\nclass = T", fillcolor="#e5813903"] ;
758 -> 759 ;
760 [label="gini = 0.495\nsamples = 58\nvalue = [32, 26]\nclass = T", fillcolor="#e5813930"] ;
758 -> 760 ;
761 [label="gini = 0.499\nsamples = 319\nvalue = [152, 167]\nclass = e", fillcolor="#399de517"] ;
757 -> 761 ;
762 [label="country <= 1.5\ngini = 0.479\nsamples = 83\nvalue = [33, 50]\nclass = e", fillcolor="#399de557"] ;
746 -> 762 ;
763 [label="browser_language <= 1.5\ngini = 0.425\nsamples = 49\nvalue = [15, 34]\nclass = e", fillcolor="#399de58e"] ;
762 -> 763 ;
764 [label="gini = 0.18\nsamples = 10\nvalue = [1, 9]\nclass = e", fillcolor="#399de5e3"] ;
763 -> 764 ;
765 [label="gini = 0.46\nsamples = 39\nvalue = [14, 25]\nclass = e", fillcolor="#399de570"] ;
763 -> 765 ;
766 [label="country <= 2.5\ngini = 0.498\nsamples = 34\nvalue = [18, 16]\nclass = T", fillcolor="#e581391c"] ;
762 -> 766 ;
767 [label="browser_language <= 1.5\ngini = 0.346\nsamples = 9\nvalue = [7, 2]\nclass = T", fillcolor="#e58139b6"] ;
766 -> 767 ;
768 [label="gini = 0.0\nsamples = 1\nvalue = [1, 0]\nclass = T", fillcolor="#e58139ff"] ;
767 -> 768 ;
769 [label="gini = 0.375\nsamples = 8\nvalue = [6, 2]\nclass = T", fillcolor="#e58139aa"] ;
767 -> 769 ;
770 [label="country <= 3.5\ngini = 0.493\nsamples = 25\nvalue = [11, 14]\nclass = e", fillcolor="#399de537"] ;
766 -> 770 ;
771 [label="browser_language <= 1.5\ngini = 0.5\nsamples = 2\nvalue = [1, 1]\nclass = T", fillcolor="#e5813900"] ;
770 -> 771 ;
772 [label="gini = 0.0\nsamples = 1\nvalue = [0, 1]\nclass = e", fillcolor="#399de5ff"] ;
771 -> 772 ;
773 [label="gini = 0.0\nsamples = 1\nvalue = [1, 0]\nclass = T", fillcolor="#e58139ff"] ;
771 -> 773 ;
774 [label="browser_language <= 1.5\ngini = 0.491\nsamples = 23\nvalue = [10, 13]\nclass = e", fillcolor="#399de53b"] ;
770 -> 774 ;
775 [label="gini = 0.0\nsamples = 1\nvalue = [1, 0]\nclass = T", fillcolor="#e58139ff"] ;
774 -> 775 ;
776 [label="gini = 0.483\nsamples = 22\nvalue = [9, 13]\nclass = e", fillcolor="#399de54e"] ;
774 -> 776 ;
777 [label="conversion <= 0.5\ngini = 0.499\nsamples = 1543\nvalue = [798, 745]\nclass = T", fillcolor="#e5813911"] ;
745 -> 777 ;
778 [label="browser_language <= 1.5\ngini = 0.499\nsamples = 1478\nvalue = [767, 711]\nclass = T", fillcolor="#e5813913"] ;
777 -> 778 ;
779 [label="country <= 1.5\ngini = 0.497\nsamples = 241\nvalue = [130, 111]\nclass = T", fillcolor="#e5813925"] ;
778 -> 779 ;
780 [label="gini = 0.495\nsamples = 138\nvalue = [76, 62]\nclass = T", fillcolor="#e581392f"] ;
779 -> 780 ;
781 [label="country <= 3.5\ngini = 0.499\nsamples = 103\nvalue = [54, 49]\nclass = T", fillcolor="#e5813918"] ;
779 -> 781 ;
782 [label="country <= 2.5\ngini = 0.5\nsamples = 45\nvalue = [22, 23]\nclass = e", fillcolor="#399de50b"] ;
781 -> 782 ;
783 [label="gini = 0.5\nsamples = 33\nvalue = [16, 17]\nclass = e", fillcolor="#399de50f"] ;
782 -> 783 ;
784 [label="gini = 0.5\nsamples = 12\nvalue = [6, 6]\nclass = T", fillcolor="#e5813900"] ;
782 -> 784 ;
785 [label="gini = 0.495\nsamples = 58\nvalue = [32, 26]\nclass = T", fillcolor="#e5813930"] ;
781 -> 785 ;
786 [label="country <= 2.5\ngini = 0.5\nsamples = 1237\nvalue = [637, 600]\nclass = T", fillcolor="#e581390f"] ;
778 -> 786 ;
787 [label="country <= 1.5\ngini = 0.5\nsamples = 864\nvalue = [440, 424]\nclass = T", fillcolor="#e5813909"] ;
786 -> 787 ;
788 [label="gini = 0.5\nsamples = 703\nvalue = [359, 344]\nclass = T", fillcolor="#e581390b"] ;
787 -> 788 ;
789 [label="gini = 0.5\nsamples = 161\nvalue = [81, 80]\nclass = T", fillcolor="#e5813903"] ;
787 -> 789 ;
790 [label="country <= 3.5\ngini = 0.498\nsamples = 373\nvalue = [197, 176]\nclass = T", fillcolor="#e581391b"] ;
786 -> 790 ;
791 [label="gini = 0.496\nsamples = 59\nvalue = [32, 27]\nclass = T", fillcolor="#e5813928"] ;
790 -> 791 ;
792 [label="gini = 0.499\nsamples = 314\nvalue = [165, 149]\nclass = T", fillcolor="#e5813919"] ;
790 -> 792 ;
793 [label="country <= 2.5\ngini = 0.499\nsamples = 65\nvalue = [31, 34]\nclass = e", fillcolor="#399de517"] ;
777 -> 793 ;
794 [label="browser_language <= 1.5\ngini = 0.5\nsamples = 52\nvalue = [26, 26]\nclass = T", fillcolor="#e5813900"] ;
793 -> 794 ;
795 [label="country <= 1.5\ngini = 0.469\nsamples = 8\nvalue = [3, 5]\nclass = e", fillcolor="#399de566"] ;
794 -> 795 ;
796 [label="gini = 0.49\nsamples = 7\nvalue = [3, 4]\nclass = e", fillcolor="#399de540"] ;
795 -> 796 ;
797 [label="gini = 0.0\nsamples = 1\nvalue = [0, 1]\nclass = e", fillcolor="#399de5ff"] ;
795 -> 797 ;
798 [label="country <= 1.5\ngini = 0.499\nsamples = 44\nvalue = [23, 21]\nclass = T", fillcolor="#e5813916"] ;
794 -> 798 ;
799 [label="gini = 0.5\nsamples = 37\nvalue = [19, 18]\nclass = T", fillcolor="#e581390d"] ;
798 -> 799 ;
800 [label="gini = 0.49\nsamples = 7\nvalue = [4, 3]\nclass = T", fillcolor="#e5813940"] ;
798 -> 800 ;
801 [label="browser_language <= 1.5\ngini = 0.473\nsamples = 13\nvalue = [5, 8]\nclass = e", fillcolor="#399de560"] ;
793 -> 801 ;
802 [label="gini = 0.0\nsamples = 1\nvalue = [1, 0]\nclass = T", fillcolor="#e58139ff"] ;
801 -> 802 ;
803 [label="country <= 3.5\ngini = 0.444\nsamples = 12\nvalue = [4, 8]\nclass = e", fillcolor="#399de57f"] ;
801 -> 803 ;
804 [label="gini = 0.0\nsamples = 1\nvalue = [0, 1]\nclass = e", fillcolor="#399de5ff"] ;
803 -> 804 ;
805 [label="gini = 0.463\nsamples = 11\nvalue = [4, 7]\nclass = e", fillcolor="#399de56d"] ;
803 -> 805 ;
806 [label="country <= 1.5\ngini = 0.5\nsamples = 23607\nvalue = [12003, 11604]\nclass = T", fillcolor="#e5813908"] ;
110 -> 806 ;
807 [label="source <= 0.5\ngini = 0.5\nsamples = 13483\nvalue = [6792, 6691]\nclass = T", fillcolor="#e5813904"] ;
806 -> 807 ;
808 [label="conversion <= 0.5\ngini = 0.499\nsamples = 2730\nvalue = [1423, 1307]\nclass = T", fillcolor="#e5813915"] ;
807 -> 808 ;
809 [label="browser_language <= 0.5\ngini = 0.499\nsamples = 2613\nvalue = [1357, 1256]\nclass = T", fillcolor="#e5813913"] ;
808 -> 809 ;
810 [label="browser <= 5.5\ngini = 0.499\nsamples = 2174\nvalue = [1125, 1049]\nclass = T", fillcolor="#e5813911"] ;
809 -> 810 ;
811 [label="gini = 0.499\nsamples = 1896\nvalue = [985, 911]\nclass = T", fillcolor="#e5813913"] ;
810 -> 811 ;
812 [label="gini = 0.5\nsamples = 278\nvalue = [140, 138]\nclass = T", fillcolor="#e5813904"] ;
810 -> 812 ;
813 [label="browser_language <= 1.5\ngini = 0.498\nsamples = 439\nvalue = [232, 207]\nclass = T", fillcolor="#e581391b"] ;
809 -> 813 ;
814 [label="browser <= 5.5\ngini = 0.497\nsamples = 76\nvalue = [41, 35]\nclass = T", fillcolor="#e5813925"] ;
813 -> 814 ;
815 [label="gini = 0.5\nsamples = 63\nvalue = [31, 32]\nclass = e", fillcolor="#399de508"] ;
814 -> 815 ;
816 [label="gini = 0.355\nsamples = 13\nvalue = [10, 3]\nclass = T", fillcolor="#e58139b3"] ;
814 -> 816 ;
817 [label="browser <= 5.5\ngini = 0.499\nsamples = 363\nvalue = [191, 172]\nclass = T", fillcolor="#e5813919"] ;
813 -> 817 ;
818 [label="gini = 0.498\nsamples = 318\nvalue = [170, 148]\nclass = T", fillcolor="#e5813921"] ;
817 -> 818 ;
819 [label="gini = 0.498\nsamples = 45\nvalue = [21, 24]\nclass = e", fillcolor="#399de520"] ;
817 -> 819 ;
820 [label="browser <= 5.5\ngini = 0.492\nsamples = 117\nvalue = [66, 51]\nclass = T", fillcolor="#e581393a"] ;
808 -> 820 ;
821 [label="browser_language <= 1.5\ngini = 0.498\nsamples = 104\nvalue = [55, 49]\nclass = T", fillcolor="#e581391c"] ;
820 -> 821 ;
822 [label="browser_language <= 0.5\ngini = 0.5\nsamples = 87\nvalue = [43, 44]\nclass = e", fillcolor="#399de506"] ;
821 -> 822 ;
823 [label="gini = 0.5\nsamples = 85\nvalue = [42, 43]\nclass = e", fillcolor="#399de506"] ;
822 -> 823 ;
824 [label="gini = 0.5\nsamples = 2\nvalue = [1, 1]\nclass = T", fillcolor="#e5813900"] ;
822 -> 824 ;
825 [label="gini = 0.415\nsamples = 17\nvalue = [12, 5]\nclass = T", fillcolor="#e5813995"] ;
821 -> 825 ;
826 [label="browser_language <= 0.5\ngini = 0.26\nsamples = 13\nvalue = [11, 2]\nclass = T", fillcolor="#e58139d1"] ;
820 -> 826 ;
827 [label="gini = 0.278\nsamples = 12\nvalue = [10, 2]\nclass = T", fillcolor="#e58139cc"] ;
826 -> 827 ;
828 [label="gini = 0.0\nsamples = 1\nvalue = [1, 0]\nclass = T", fillcolor="#e58139ff"] ;
826 -> 828 ;
829 [label="conversion <= 0.5\ngini = 0.5\nsamples = 10753\nvalue = [5369, 5384]\nclass = e", fillcolor="#399de501"] ;
807 -> 829 ;
830 [label="browser_language <= 1.5\ngini = 0.5\nsamples = 10257\nvalue = [5112, 5145]\nclass = e", fillcolor="#399de502"] ;
829 -> 830 ;
831 [label="source <= 1.5\ngini = 0.5\nsamples = 8801\nvalue = [4369, 4432]\nclass = e", fillcolor="#399de504"] ;
830 -> 831 ;
832 [label="browser_language <= 0.5\ngini = 0.5\nsamples = 4384\nvalue = [2162, 2222]\nclass = e", fillcolor="#399de507"] ;
831 -> 832 ;
833 [label="browser <= 5.5\ngini = 0.5\nsamples = 4233\nvalue = [2095, 2138]\nclass = e", fillcolor="#399de505"] ;
832 -> 833 ;
834 [label="gini = 0.5\nsamples = 3672\nvalue = [1811, 1861]\nclass = e", fillcolor="#399de507"] ;
833 -> 834 ;
835 [label="gini = 0.5\nsamples = 561\nvalue = [284, 277]\nclass = T", fillcolor="#e5813906"] ;
833 -> 835 ;
836 [label="browser <= 5.5\ngini = 0.494\nsamples = 151\nvalue = [67, 84]\nclass = e", fillcolor="#399de534"] ;
832 -> 836 ;
837 [label="gini = 0.497\nsamples = 127\nvalue = [59, 68]\nclass = e", fillcolor="#399de522"] ;
836 -> 837 ;
838 [label="gini = 0.444\nsamples = 24\nvalue = [8, 16]\nclass = e", fillcolor="#399de57f"] ;
836 -> 838 ;
839 [label="browser_language <= 0.5\ngini = 0.5\nsamples = 4417\nvalue = [2207, 2210]\nclass = e", fillcolor="#399de500"] ;
831 -> 839 ;
840 [label="browser <= 5.5\ngini = 0.5\nsamples = 4271\nvalue = [2129, 2142]\nclass = e", fillcolor="#399de502"] ;
839 -> 840 ;
841 [label="gini = 0.5\nsamples = 3751\nvalue = [1866, 1885]\nclass = e", fillcolor="#399de503"] ;
840 -> 841 ;
842 [label="gini = 0.5\nsamples = 520\nvalue = [263, 257]\nclass = T", fillcolor="#e5813906"] ;
840 -> 842 ;
843 [label="browser <= 5.5\ngini = 0.498\nsamples = 146\nvalue = [78, 68]\nclass = T", fillcolor="#e5813921"] ;
839 -> 843 ;
844 [label="gini = 0.491\nsamples = 125\nvalue = [71, 54]\nclass = T", fillcolor="#e581393d"] ;
843 -> 844 ;
845 [label="gini = 0.444\nsamples = 21\nvalue = [7, 14]\nclass = e", fillcolor="#399de57f"] ;
843 -> 845 ;
846 [label="browser <= 5.5\ngini = 0.5\nsamples = 1456\nvalue = [743, 713]\nclass = T", fillcolor="#e581390a"] ;
830 -> 846 ;
847 [label="source <= 1.5\ngini = 0.5\nsamples = 1271\nvalue = [641, 630]\nclass = T", fillcolor="#e5813904"] ;
846 -> 847 ;
848 [label="gini = 0.5\nsamples = 641\nvalue = [315, 326]\nclass = e", fillcolor="#399de509"] ;
847 -> 848 ;
